{"learner":{"attributes":{"scikit_learn":"{\"_estimator_type\": \"regressor\"}"},"feature_names":["Employment Type","Experience Level","Company Size","Year","employee_residence_num","Company Location_num"],"feature_types":["int","int","int","int","int","int"],"gradient_booster":{"model":{"gbtree_model_param":{"num_parallel_tree":"1","num_trees":"100"},"iteration_indptr":[0,1,2,3,4,5,6,7,8,9,10,11,12,13,14,15,16,17,18,19,20,21,22,23,24,25,26,27,28,29,30,31,32,33,34,35,36,37,38,39,40,41,42,43,44,45,46,47,48,49,50,51,52,53,54,55,56,57,58,59,60,61,62,63,64,65,66,67,68,69,70,71,72,73,74,75,76,77,78,79,80,81,82,83,84,85,86,87,88,89,90,91,92,93,94,95,96,97,98,99,100],"tree_info":[0,0,0,0,0,0,0,0,0,0,0,0,0,0,0,0,0,0,0,0,0,0,0,0,0,0,0,0,0,0,0,0,0,0,0,0,0,0,0,0,0,0,0,0,0,0,0,0,0,0,0,0,0,0,0,0,0,0,0,0,0,0,0,0,0,0,0,0,0,0,0,0,0,0,0,0,0,0,0,0,0,0,0,0,0,0,0,0,0,0,0,0,0,0,0,0,0,0,0,0],"trees":[{"base_weights":[-7.253408E-3,1.8321258E4,-5.1126062E4,-3.9911953E4,2.2206197E4,-6.8019766E4,-2.4318922E4,-1.3994143E4,-3.286396E4,6.422212E4,1.9809113E4,-4.619654E4,-7.679826E4,-1.2162668E4,-5.218928E4,-7.7010693E3,-1.09152E4,4.094158E4,1.7661086E4,-5.603039E3,2.6365197E4,-2.0975178E4,-4.257485E4,-8.5587055E4,-7.064905E4,-4.0129676E4,3.0466252E3,-6.485751E4,-2.3981492E4,-8.966741E3,8.724764E2,-1.0838848E4,-4.8851807E3,1.6307499E4,3.1447908E4,7.495554E3,-4.951134E4,-6.038471E4,-9.743342E4,-3.6515883E4,-7.98769E4,-6.2104348E4,1.8292845E3,-1.8095988E4,5.661511E3,-1.3853586E4,-6.958626E4,5.966604E4,-4.1123062E4,-1.5809302E3,1.9284945E4,7.9756987E3,4.2756665E3,3.2415742E3,9.464972E3,-4.284256E3,-1.4916251E4,-2.2175316E4,-1.3601165E4,-3.3145266E4,-2.577581E4,-1.4579501E4,-2.0261409E3,-2.4408223E4,-1.6361838E4,-1.3183832E4,-2.347951E4,-1.0497824E4,4.814201E3,4.9921465E3,-1.6784425E3,-8.820407E2,-5.5725835E3,-2.5385158E4,-1.8089203E4,1.6370168E3,4.14755E4,-2.0402855E4,-6.674897E3],"categories":[],"categories_nodes":[],"categories_segments":[],"categories_sizes":[],"default_left":[0,0,0,0,0,0,0,0,0,0,0,0,0,0,0,0,0,0,0,0,0,0,0,0,0,0,0,0,0,0,0,0,0,0,0,0,0,0,0,0,0,0,0,0,0,0,0,0,0,0,0,0,0,0,0,0,0,0,0,0,0,0,0,0,0,0,0,0,0,0,0,0,0,0,0,0,0,0,0],"id":0,"left_children":[1,3,5,7,9,11,13,-1,15,17,19,21,23,25,27,29,-1,-1,-1,31,33,-1,35,37,39,41,43,45,47,-1,-1,-1,49,51,53,-1,55,57,59,61,63,65,67,-1,69,71,73,75,77,-1,-1,-1,-1,-1,-1,-1,-1,-1,-1,-1,-1,-1,-1,-1,-1,-1,-1,-1,-1,-1,-1,-1,-1,-1,-1,-1,-1,-1,-1],"loss_changes":[2.4747458E12,4.409085E11,3.139974E11,4.2582671E9,1.8243342E11,7.82547E10,9.117984E10,0E0,5.299978E9,2.9859414E10,2.8787317E11,7.76192E9,1.0328605E10,8.094037E10,2.7746697E10,2.2055286E9,0E0,0E0,0E0,7.602852E9,6.967545E10,0E0,5.325493E10,2.9943267E10,5.5038837E10,6.1889913E10,2.0887853E10,1.2542345E10,4.1167606E10,0E0,0E0,0E0,9.595976E9,9.401729E9,1.5771894E9,0E0,3.538944E7,4.997923E9,2.528641E9,1.4415335E10,9.7655194E8,9.472344E9,1.3126441E10,0E0,1.4923046E10,2.5456576E8,2.018476E9,2.0545964E10,1.0157904E10,0E0,0E0,0E0,0E0,0E0,0E0,0E0,0E0,0E0,0E0,0E0,0E0,0E0,0E0,0E0,0E0,0E0,0E0,0E0,0E0,0E0,0E0,0E0,0E0,0E0,0E0,0E0,0E0,0E0,0E0],"parents":[2147483647,0,0,1,1,2,2,3,3,4,4,5,5,6,6,8,8,9,9,10,10,11,11,12,12,13,13,14,14,15,15,19,19,20,20,22,22,23,23,24,24,25,25,26,26,27,27,28,28,32,32,33,33,34,34,36,36,37,37,38,38,39,39,40,40,41,41,42,42,44,44,45,45,46,46,47,47,48,48],"right_children":[2,4,6,8,10,12,14,-1,16,18,20,22,24,26,28,30,-1,-1,-1,32,34,-1,36,38,40,42,44,46,48,-1,-1,-1,50,52,54,-1,56,58,60,62,64,66,68,-1,70,72,74,76,78,-1,-1,-1,-1,-1,-1,-1,-1,-1,-1,-1,-1,-1,-1,-1,-1,-1,-1,-1,-1,-1,-1,-1,-1,-1,-1,-1,-1,-1,-1],"split_conditions":[1E0,1E0,3E0,2.023E3,2E0,2E0,1E1,-1.3994143E4,2E0,2.022E3,3E0,1E0,9E0,2.023E3,3.9E1,1E0,-1.09152E4,4.094158E4,1.7661086E4,1E0,2.023E3,-2.0975178E4,2E0,3E0,1.1E1,9E0,1E0,2E0,4.1E1,-8.966741E3,8.724764E2,-1.0838848E4,2E0,2E0,1E0,7.495554E3,2.021E3,1E0,5E0,2.023E3,7.3E1,3E0,2.022E3,-1.8095988E4,3E0,2.022E3,1.5E1,4E1,5.4E1,-1.5809302E3,1.9284945E4,7.9756987E3,4.2756665E3,3.2415742E3,9.464972E3,-4.284256E3,-1.4916251E4,-2.2175316E4,-1.3601165E4,-3.3145266E4,-2.577581E4,-1.4579501E4,-2.0261409E3,-2.4408223E4,-1.6361838E4,-1.3183832E4,-2.347951E4,-1.0497824E4,4.814201E3,4.9921465E3,-1.6784425E3,-8.820407E2,-5.5725835E3,-2.5385158E4,-1.8089203E4,1.6370168E3,4.14755E4,-2.0402855E4,-6.674897E3],"split_indices":[4,1,1,3,1,4,4,0,2,3,1,1,4,3,4,2,0,0,0,2,3,0,1,5,4,4,2,5,4,0,0,0,0,2,2,0,3,1,4,3,4,4,3,0,5,3,5,4,4,0,0,0,0,0,0,0,0,0,0,0,0,0,0,0,0,0,0,0,0,0,0,0,0,0,0,0,0,0,0],"split_type":[0,0,0,0,0,0,0,0,0,0,0,0,0,0,0,0,0,0,0,0,0,0,0,0,0,0,0,0,0,0,0,0,0,0,0,0,0,0,0,0,0,0,0,0,0,0,0,0,0,0,0,0,0,0,0,0,0,0,0,0,0,0,0,0,0,0,0,0,0,0,0,0,0,0,0,0,0,0,0],"sum_hessian":[2.64E3,1.944E3,6.96E2,1.21E2,1.823E3,4.26E2,2.7E2,5.9E1,6.2E1,9.7E1,1.726E3,1.24E2,3.02E2,1.89E2,8.1E1,8E0,5.4E1,5E0,9.2E1,3.54E2,1.372E3,1.4E1,1.1E2,1.19E2,1.83E2,6.6E1,1.23E2,5.5E1,2.6E1,2E0,6E0,7E0,3.47E2,4.62E2,9.1E2,1E1,1E2,4E1,7.9E1,4E1,1.43E2,4.3E1,2.3E1,4E0,1.19E2,5E0,5E1,4E0,2.2E1,3.46E2,1E0,7.5E1,3.87E2,5E0,9.05E2,1E0,9.9E1,1.9E1,2.1E1,3.3E1,4.6E1,2.8E1,1.2E1,1.33E2,1E1,2.2E1,2.1E1,6E0,1.7E1,6E1,5.9E1,2E0,3E0,1.6E1,3.4E1,3E0,1E0,8E0,1.4E1],"tree_param":{"num_deleted":"0","num_feature":"6","num_nodes":"79","size_leaf_vector":"1"}},{"base_weights":[-8.2683044E1,1.2854405E4,-3.6183906E4,-2.8208887E4,1.5593916E4,-4.804651E4,-1.7359125E4,-9.865872E3,-2.3306508E4,4.5553477E4,1.3884807E4,-3.4295973E4,-5.544519E4,-8.920605E3,-3.7394586E4,-6.2901074E3,-7.7001763E3,3.070618E4,1.2419733E4,-3.9027817E3,1.8473816E4,-3.1327773E4,-5.602415E4,-6.5238734E4,-5.0028535E4,-2.8039875E4,1.5516426E3,-4.7302805E4,-1.6193166E4,-7.173394E3,6.4812726E2,-9.365741E3,-4.1739384E1,1.1441705E4,2.2027486E4,-3.22925E4,1.4836578E4,-1.754899E4,-1.7995271E4,-1.9966465E4,-8.471129E3,-7.1986035E3,-5.383243E4,-4.4306305E4,1.7106318E3,2.6621875E4,1.3287236E2,-1.0773281E4,-5.081044E4,5.0388727E4,-2.996344E4,-3.0535178E3,1.6392203E4,6.806694E1,-5.568972E3,7.4827217E3,3.1144387E3,2.4311797E3,6.628615E3,-1.526722E4,-8.698882E3,1.2567773E3,-9.153823E3,-5.0002026E3,7.612334E3,-1.8927568E4,-1.3313306E4,-9.400646E3,-1.6755834E4,-7.7983823E3,3.5483376E3,-1.3752953E4,6.1423016E2,-7.056313E2,-4.3187534E3,-1.9688387E4,-1.2702923E4,1.2686884E3,3.525417E4,-1.2779753E4,-1.6723834E3],"categories":[],"categories_nodes":[],"categories_segments":[],"categories_sizes":[],"default_left":[0,0,0,0,0,0,0,0,0,0,0,0,0,0,0,0,0,0,0,0,0,0,0,0,0,0,0,0,0,0,0,0,0,0,0,0,0,0,0,0,0,0,0,0,0,0,0,0,0,0,0,0,0,0,0,0,0,0,0,0,0,0,0,0,0,0,0,0,0,0,0,0,0,0,0,0,0,0,0,0,0],"id":1,"left_children":[1,3,5,7,9,11,13,-1,15,17,19,21,23,25,27,29,-1,-1,-1,31,33,35,37,39,41,43,45,47,49,-1,-1,51,53,55,57,59,-1,61,-1,-1,-1,63,65,67,69,-1,71,73,75,77,79,-1,-1,-1,-1,-1,-1,-1,-1,-1,-1,-1,-1,-1,-1,-1,-1,-1,-1,-1,-1,-1,-1,-1,-1,-1,-1,-1,-1,-1,-1],"loss_changes":[1.2339302E12,2.1923942E11,1.5481373E11,2.031018E9,9.276385E10,4.15396E10,4.5484294E10,0E0,2.3693496E9,1.8887705E10,1.4104261E11,8.047919E9,1.1377508E10,3.8486086E10,1.6039485E10,1.3918355E9,0E0,0E0,0E0,7.487525E9,3.405896E10,1.2195996E10,1.5375442E9,2.747138E9,2.9264085E10,3.2983335E10,1.5450665E10,6.371754E9,2.6264795E10,0E0,0E0,8.2023434E9,1.0440736E9,6.3684567E9,6.821642E8,6.8004086E9,0E0,9.7325357E8,0E0,0E0,0E0,5.357735E9,1.1820302E10,4.8395796E9,7.3149174E9,0E0,1.1008831E10,1.4917696E8,3.3689108E9,1.499545E10,6.8504535E9,0E0,0E0,0E0,0E0,0E0,0E0,0E0,0E0,0E0,0E0,0E0,0E0,0E0,0E0,0E0,0E0,0E0,0E0,0E0,0E0,0E0,0E0,0E0,0E0,0E0,0E0,0E0,0E0,0E0,0E0],"parents":[2147483647,0,0,1,1,2,2,3,3,4,4,5,5,6,6,8,8,9,9,10,10,11,11,12,12,13,13,14,14,15,15,19,19,20,20,21,21,22,22,23,23,24,24,25,25,26,26,27,27,28,28,31,31,32,32,33,33,34,34,35,35,37,37,41,41,42,42,43,43,44,44,46,46,47,47,48,48,49,49,50,50],"right_children":[2,4,6,8,10,12,14,-1,16,18,20,22,24,26,28,30,-1,-1,-1,32,34,36,38,40,42,44,46,48,50,-1,-1,52,54,56,58,60,-1,62,-1,-1,-1,64,66,68,70,-1,72,74,76,78,80,-1,-1,-1,-1,-1,-1,-1,-1,-1,-1,-1,-1,-1,-1,-1,-1,-1,-1,-1,-1,-1,-1,-1,-1,-1,-1,-1,-1,-1,-1],"split_conditions":[1E0,1E0,3E0,2.023E3,2E0,2E0,1.1E1,-9.865872E3,2E0,2.022E3,3E0,1.5E1,1E0,2.023E3,3.9E1,1E0,-7.7001763E3,3.070618E4,1.2419733E4,2.023E3,2.023E3,1.3E1,1E0,7.2E1,2E0,9E0,1E0,2E0,4.1E1,-7.173394E3,6.4812726E2,2E0,2E0,2.022E3,1E0,1E0,1.4836578E4,1E0,-1.7995271E4,-1.9966465E4,-8.471129E3,3.1E1,2E0,3E0,2.022E3,2.6621875E4,1E0,2.022E3,1.5E1,4E1,5.2E1,-3.0535178E3,1.6392203E4,6.806694E1,-5.568972E3,7.4827217E3,3.1144387E3,2.4311797E3,6.628615E3,-1.526722E4,-8.698882E3,1.2567773E3,-9.153823E3,-5.0002026E3,7.612334E3,-1.8927568E4,-1.3313306E4,-9.400646E3,-1.6755834E4,-7.7983823E3,3.5483376E3,-1.3752953E4,6.1423016E2,-7.056313E2,-4.3187534E3,-1.9688387E4,-1.2702923E4,1.2686884E3,3.525417E4,-1.2779753E4,-1.6723834E3],"split_indices":[4,1,1,3,1,5,4,0,2,3,1,4,1,3,4,2,0,0,0,3,3,4,0,4,1,4,5,5,4,0,0,0,0,3,2,1,0,1,0,0,0,4,2,4,3,0,2,3,5,4,5,0,0,0,0,0,0,0,0,0,0,0,0,0,0,0,0,0,0,0,0,0,0,0,0,0,0,0,0,0,0],"split_type":[0,0,0,0,0,0,0,0,0,0,0,0,0,0,0,0,0,0,0,0,0,0,0,0,0,0,0,0,0,0,0,0,0,0,0,0,0,0,0,0,0,0,0,0,0,0,0,0,0,0,0,0,0,0,0,0,0,0,0,0,0,0,0,0,0,0,0,0,0,0,0,0,0,0,0,0,0,0,0,0,0],"sum_hessian":[2.64E3,1.944E3,6.96E2,1.21E2,1.823E3,4.26E2,2.7E2,5.9E1,6.2E1,9.7E1,1.726E3,1.51E2,2.75E2,1.91E2,7.9E1,8E0,5.4E1,5E0,9.2E1,3.54E2,1.372E3,1.35E2,1.6E1,9.4E1,1.81E2,6.7E1,1.24E2,5.3E1,2.6E1,2E0,6E0,1.46E2,2.08E2,4.62E2,9.1E2,1.34E2,1E0,2E0,1.4E1,9E1,4E0,1.5E1,1.66E2,4.3E1,2.4E1,1E0,1.23E2,5E0,4.8E1,4E0,2.2E1,1.45E2,1E0,2.06E2,2E0,3.2E1,4.3E2,5E0,9.05E2,1.8E1,1.16E2,1E0,1E0,1.2E1,3E0,8.1E1,8.5E1,2.2E1,2.1E1,6E0,1.8E1,4E0,1.19E2,2E0,3E0,1.5E1,3.3E1,3E0,1E0,1.4E1,8E0],"tree_param":{"num_deleted":"0","num_feature":"6","num_nodes":"81","size_leaf_vector":"1"}},{"base_weights":[-8.772323E1,9.022009E3,-2.5508586E4,-1.9943688E4,1.0954462E4,-3.3850562E4,-1.2270461E4,-2.9970318E4,-1.8257988E4,3.2327492E4,9.735289E3,-2.4347414E4,-3.9176445E4,-6.1773613E3,-2.6238979E4,7.852626E2,-1.0443809E4,-6.184785E3,-1.6141887E4,2.053497E4,8.506817E3,-2.7098674E3,1.2945991E4,-3.0718777E4,-1.8520545E4,-4.945397E4,-3.399234E4,-2.0586176E4,1.6578638E3,-3.335029E4,-1.0517781E4,4.8146655E2,-5.4321235E3,-2.3735012E4,-2.218744E3,8.0320825E3,1.542919E4,-1.3255463E4,-2.550833E4,3.9075256E3,-2.6058594E4,-1.2091518E4,-5.249599E4,-1.0518697E4,-4.0439746E4,-3.1608875E4,4.7986655E2,-6.4265977E3,1.4163194E4,-9.809903E3,-3.6513E4,4.257668E4,-2.1602762E4,-8.379923E3,-3.7661035E3,-7.4784906E2,1.3933372E4,2.4897202E3,-1.0701591E4,1.8233829E3,4.642227E3,2.620733E3,-8.0896157E3,-5.022617E3,7.8237344E3,2.2183997E3,-8.535584E3,-1.1006814E4,3.0015227E3,-1.8624334E4,-1.3535966E4,-5.790698E3,2.9654043E3,-9.888082E3,-1.2735584E4,1.9586548E3,-1.0074122E4,-5.793084E3,2.4448125E3,2.3080398E3,-1.9308326E4,2.2628594E4,3.3946204E3,-5.1520197E2,-6.817519E3,-1.4412543E4,-9.004131E3,9.8323364E2,2.9966045E4,-3.401384E3,-1.4639024E4],"categories":[],"categories_nodes":[],"categories_segments":[],"categories_sizes":[],"default_left":[0,0,0,0,0,0,0,0,0,0,0,0,0,0,0,0,0,0,0,0,0,0,0,0,0,0,0,0,0,0,0,0,0,0,0,0,0,0,0,0,0,0,0,0,0,0,0,0,0,0,0,0,0,0,0,0,0,0,0,0,0,0,0,0,0,0,0,0,0,0,0,0,0,0,0,0,0,0,0,0,0,0,0,0,0,0,0,0,0,0,0],"id":2,"left_children":[1,3,5,7,9,11,13,15,17,19,21,23,25,27,29,-1,-1,-1,31,-1,-1,33,35,37,39,41,43,45,47,49,51,-1,-1,53,55,57,59,-1,61,63,65,67,69,71,73,75,77,79,81,83,85,87,89,-1,-1,-1,-1,-1,-1,-1,-1,-1,-1,-1,-1,-1,-1,-1,-1,-1,-1,-1,-1,-1,-1,-1,-1,-1,-1,-1,-1,-1,-1,-1,-1,-1,-1,-1,-1,-1,-1],"loss_changes":[6.118257E11,1.09089505E11,7.655581E10,1.5148319E9,4.7214002E10,2.0657766E10,2.2903144E10,2.6159667E9,2.011177E8,1.2117893E10,6.9042045E10,5.2225966E9,1.2811043E10,2.1484427E10,8.816693E9,0E0,0E0,0E0,2.1564846E9,0E0,0E0,3.613048E9,1.6629694E10,3.994919E9,1.4303189E10,9.480733E9,2.742195E10,1.5572877E10,1.262728E10,3.8110904E9,1.6810652E10,0E0,0E0,2.4857088E7,4.757381E9,5.698478E9,2.8844032E8,0E0,2.9798236E9,1.0508966E10,5.2545126E9,4.715311E9,2.9963878E9,7.538641E9,7.68E8,3.52759E9,3.8001034E9,6.266609E10,7.6955894E9,7.9710726E8,2.2295757E9,1.093385E10,5.8669926E9,0E0,0E0,0E0,0E0,0E0,0E0,0E0,0E0,0E0,0E0,0E0,0E0,0E0,0E0,0E0,0E0,0E0,0E0,0E0,0E0,0E0,0E0,0E0,0E0,0E0,0E0,0E0,0E0,0E0,0E0,0E0,0E0,0E0,0E0,0E0,0E0,0E0,0E0],"parents":[2147483647,0,0,1,1,2,2,3,3,4,4,5,5,6,6,7,7,8,8,9,9,10,10,11,11,12,12,13,13,14,14,18,18,21,21,22,22,23,23,24,24,25,25,26,26,27,27,28,28,29,29,30,30,33,33,34,34,35,35,36,36,38,38,39,39,40,40,41,41,42,42,43,43,44,44,45,45,46,46,47,47,48,48,49,49,50,50,51,51,52,52],"right_children":[2,4,6,8,10,12,14,16,18,20,22,24,26,28,30,-1,-1,-1,32,-1,-1,34,36,38,40,42,44,46,48,50,52,-1,-1,54,56,58,60,-1,62,64,66,68,70,72,74,76,78,80,82,84,86,88,90,-1,-1,-1,-1,-1,-1,-1,-1,-1,-1,-1,-1,-1,-1,-1,-1,-1,-1,-1,-1,-1,-1,-1,-1,-1,-1,-1,-1,-1,-1,-1,-1,-1,-1,-1,-1,-1,-1],"split_conditions":[1E0,1E0,3E0,1E0,2E0,3E0,1E1,2.021E3,2.023E3,2E0,3E0,2.023E3,9E0,2.023E3,3.9E1,7.852626E2,-1.0443809E4,-6.184785E3,2E0,2.053497E4,8.506817E3,1E0,2.023E3,1E0,2E0,1E0,1.1E1,9E0,7E0,1.2E1,4.1E1,4.8146655E2,-5.4321235E3,2.023E3,2E0,2E0,1E0,-1.3255463E4,2E0,1E0,2E0,1E0,4E0,2.023E3,1.8E1,2.021E3,2.022E3,3E0,1E0,1.4E1,1.4E1,4E1,2.023E3,-8.379923E3,-3.7661035E3,-7.4784906E2,1.3933372E4,2.4897202E3,-1.0701591E4,1.8233829E3,4.642227E3,2.620733E3,-8.0896157E3,-5.022617E3,7.8237344E3,2.2183997E3,-8.535584E3,-1.1006814E4,3.0015227E3,-1.8624334E4,-1.3535966E4,-5.790698E3,2.9654043E3,-9.888082E3,-1.2735584E4,1.9586548E3,-1.0074122E4,-5.793084E3,2.4448125E3,2.3080398E3,-1.9308326E4,2.2628594E4,3.3946204E3,-5.1520197E2,-6.817519E3,-1.4412543E4,-9.004131E3,9.8323364E2,2.9966045E4,-3.401384E3,-1.4639024E4],"split_indices":[4,1,1,2,1,4,4,3,3,2,1,3,4,3,4,0,0,0,2,0,0,2,3,1,1,5,4,4,4,5,4,0,0,3,0,0,2,0,1,1,2,1,4,3,4,3,3,5,5,4,4,4,3,0,0,0,0,0,0,0,0,0,0,0,0,0,0,0,0,0,0,0,0,0,0,0,0,0,0,0,0,0,0,0,0,0,0,0,0,0,0],"split_type":[0,0,0,0,0,0,0,0,0,0,0,0,0,0,0,0,0,0,0,0,0,0,0,0,0,0,0,0,0,0,0,0,0,0,0,0,0,0,0,0,0,0,0,0,0,0,0,0,0,0,0,0,0,0,0,0,0,0,0,0,0,0,0,0,0,0,0,0,0,0,0,0,0,0,0,0,0,0,0,0,0,0,0,0,0,0,0,0,0,0,0],"sum_hessian":[2.64E3,1.944E3,6.96E2,1.21E2,1.823E3,4.26E2,2.7E2,1.5E1,1.06E2,9.7E1,1.726E3,1.55E2,2.71E2,1.89E2,8.1E1,2E0,1.3E1,4.6E1,6E1,8E0,8.9E1,3.54E2,1.372E3,7.2E1,8.3E1,8.8E1,1.83E2,6.6E1,1.23E2,5.5E1,2.6E1,6E0,5.4E1,7E0,3.47E2,4.62E2,9.1E2,1.8E1,5.4E1,2.1E1,6.2E1,7E0,8.1E1,4E1,1.43E2,4.3E1,2.3E1,7.5E1,4.8E1,7E0,4.8E1,4E0,2.2E1,4E0,3E0,3.46E2,1E0,4.6E2,2E0,5E0,9.05E2,2E0,5.2E1,1.1E1,1E1,4E0,5.8E1,3E0,4E0,3.2E1,4.9E1,2.8E1,1.2E1,3.4E1,1.09E2,2E0,4.1E1,6E0,1.7E1,6.1E1,1.4E1,1E0,4.7E1,5E0,2E0,1.5E1,3.3E1,3E0,1E0,1.7E1,5E0],"tree_param":{"num_deleted":"0","num_feature":"6","num_nodes":"91","size_leaf_vector":"1"}},{"base_weights":[-9.949897E1,6.31928E3,-1.8011156E4,-1.4131023E4,7.6836533E3,-2.390114E4,-8.664163E3,-2.1582879E4,-1.2884662E4,2.2925594E4,6.814288E3,-3.264269E4,-2.0417742E4,-2.3536604E4,-5.6777134E3,6.282094E2,-7.534461E3,-2.2511125E4,-3.6876792E3,2.1281697E4,2.7357535E4,-1.8939843E3,9.060918E3,-2.4597588E4,-3.7141785E4,1.4134844E4,-2.3788043E4,-5.4152476E3,-2.791652E4,-1.9101702E3,-2.497293E4,-7.5875044E3,-1.708336E3,1.5776714E4,2.0069025E4,-5.6147227E3,7.3205646E2,5.604723E3,1.0807522E4,-1.6486426E4,-3.525627E4,-3.8440496E4,-1.1271719E4,-1.2643455E4,1.7780197E4,-3.054642E4,-2.0001883E4,-2.3251584E4,1.7071406E4,-3.1678979E4,-7.8036274E3,-4.0872903E3,4.257018E4,8.864123E3,-1.0849711E4,-4.0989688E2,6.163408E3,-1.8581918E3,1.1843365E4,2.753904E2,-3.701958E3,3.5759946E3,1.3059806E3,4.078666E3,3.1991626E3,-7.706232E3,2.9181118E3,-1.1092429E4,-6.4851447E2,-7.7307734E3,-1.2330192E4,-8.6965845E2,-6.7144727E3,-3.263125E3,6.9710967E3,-5.4373413E3,-1.0097528E4,-7.356743E3,-4.6090303E3,-8.4226526E2,-8.0336646E3,-7.0829846E2,9.244002E3,-7.9581255E3,-1.3445114E4,9.954384E3,-6.0493975E3,-5.7365204E2,-7.564256E3,6.6972974E3,1.6290601E4,-8.472564E3,8.640376E3],"categories":[],"categories_nodes":[],"categories_segments":[],"categories_sizes":[],"default_left":[0,0,0,0,0,0,0,0,0,0,0,0,0,0,0,0,0,0,0,0,0,0,0,0,0,0,0,0,0,0,0,0,0,0,0,0,0,0,0,0,0,0,0,0,0,0,0,0,0,0,0,0,0,0,0,0,0,0,0,0,0,0,0,0,0,0,0,0,0,0,0,0,0,0,0,0,0,0,0,0,0,0,0,0,0,0,0,0,0,0,0,0,0],"id":3,"left_children":[1,3,5,7,9,11,13,15,17,19,21,23,25,27,29,-1,-1,31,-1,33,-1,35,37,39,41,43,45,47,49,51,53,-1,-1,-1,55,57,59,61,63,65,67,69,71,-1,73,75,77,79,81,83,85,87,89,91,-1,-1,-1,-1,-1,-1,-1,-1,-1,-1,-1,-1,-1,-1,-1,-1,-1,-1,-1,-1,-1,-1,-1,-1,-1,-1,-1,-1,-1,-1,-1,-1,-1,-1,-1,-1,-1,-1,-1],"loss_changes":[3.0375212E11,5.4377693E10,3.8165316E10,8.550134E8,2.4013267E10,1.2335792E10,1.1903048E10,1.3906176E9,3.334738E8,9.057092E9,3.3804632E10,3.4298757E9,3.620365E10,3.4204733E9,1.6454189E10,0E0,0E0,8.977613E7,0E0,2.627244E9,0E0,3.472748E9,8.2276925E9,3.3956475E9,2.0865434E9,6.4938045E9,6.579323E9,4.407732E9,2.477052E9,1.8670256E10,1.4333604E10,0E0,0E0,0E0,9.9669606E8,4.0841482E9,5.192436E8,3.6073185E9,2.1986509E8,7.003196E9,1.00065075E9,1.3340918E9,4.002251E8,0E0,4.474924E9,3.2170312E9,3.4604974E9,3.5749043E8,1.407944E9,8.4171366E8,4.2153987E9,8.36127E9,9.254318E8,8.211272E9,0E0,0E0,0E0,0E0,0E0,0E0,0E0,0E0,0E0,0E0,0E0,0E0,0E0,0E0,0E0,0E0,0E0,0E0,0E0,0E0,0E0,0E0,0E0,0E0,0E0,0E0,0E0,0E0,0E0,0E0,0E0,0E0,0E0,0E0,0E0,0E0,0E0,0E0,0E0],"parents":[2147483647,0,0,1,1,2,2,3,3,4,4,5,5,6,6,7,7,8,8,9,9,10,10,11,11,12,12,13,13,14,14,17,17,19,19,21,21,22,22,23,23,24,24,25,25,26,26,27,27,28,28,29,29,30,30,34,34,35,35,36,36,37,37,38,38,39,39,40,40,41,41,42,42,44,44,45,45,46,46,47,47,48,48,49,49,50,50,51,51,52,52,53,53],"right_children":[2,4,6,8,10,12,14,16,18,20,22,24,26,28,30,-1,-1,32,-1,34,-1,36,38,40,42,44,46,48,50,52,54,-1,-1,-1,56,58,60,62,64,66,68,70,72,-1,74,76,78,80,82,84,86,88,90,92,-1,-1,-1,-1,-1,-1,-1,-1,-1,-1,-1,-1,-1,-1,-1,-1,-1,-1,-1,-1,-1,-1,-1,-1,-1,-1,-1,-1,-1,-1,-1,-1,-1,-1,-1,-1,-1,-1,-1],"split_conditions":[1E0,1E0,3E0,1E0,2E0,1E0,2.022E3,2.021E3,2.021E3,2E0,3E0,4E0,2E0,3E0,2.1E1,6.282094E2,-7.534461E3,2E0,-3.6876792E3,2.021E3,2.7357535E4,2.023E3,2.023E3,2E0,7.2E1,2.021E3,2E0,2E0,2.2E1,1.8E1,2.023E3,-7.5875044E3,-1.708336E3,1.5776714E4,1E0,2E0,2E0,2E0,2E0,2.023E3,3E0,1E0,7.9E1,-1.2643455E4,1E0,3E0,2.023E3,1E0,2E0,1.1E1,2.9E1,1.1E1,2E0,1E0,-1.0849711E4,-4.0989688E2,6.163408E3,-1.8581918E3,1.1843365E4,2.753904E2,-3.701958E3,3.5759946E3,1.3059806E3,4.078666E3,3.1991626E3,-7.706232E3,2.9181118E3,-1.1092429E4,-6.4851447E2,-7.7307734E3,-1.2330192E4,-8.6965845E2,-6.7144727E3,-3.263125E3,6.9710967E3,-5.4373413E3,-1.0097528E4,-7.356743E3,-4.6090303E3,-8.4226526E2,-8.0336646E3,-7.0829846E2,9.244002E3,-7.9581255E3,-1.3445114E4,9.954384E3,-6.0493975E3,-5.7365204E2,-7.564256E3,6.6972974E3,1.6290601E4,-8.472564E3,8.640376E3],"split_indices":[4,1,1,2,1,1,3,3,3,0,1,5,1,4,5,0,0,0,0,3,0,3,3,2,4,3,2,2,5,4,3,0,0,0,2,0,0,2,2,3,5,2,4,0,2,4,3,2,4,5,5,4,2,2,0,0,0,0,0,0,0,0,0,0,0,0,0,0,0,0,0,0,0,0,0,0,0,0,0,0,0,0,0,0,0,0,0,0,0,0,0,0,0],"split_type":[0,0,0,0,0,0,0,0,0,0,0,0,0,0,0,0,0,0,0,0,0,0,0,0,0,0,0,0,0,0,0,0,0,0,0,0,0,0,0,0,0,0,0,0,0,0,0,0,0,0,0,0,0,0,0,0,0,0,0,0,0,0,0,0,0,0,0,0,0,0,0,0,0,0,0,0,0,0,0,0,0,0,0,0,0,0,0,0,0,0,0,0,0],"sum_hessian":[2.64E3,1.944E3,6.96E2,1.21E2,1.823E3,4.26E2,2.7E2,1.5E1,1.06E2,9.7E1,1.726E3,1.19E2,3.07E2,4.4E1,2.26E2,2E0,1.3E1,4E0,1.02E2,9.6E1,1E0,3.54E2,1.372E3,4.5E1,7.4E1,2.7E1,2.8E2,9E0,3.5E1,1.9E2,3.6E1,3E0,1E0,2E0,9.4E1,1.46E2,2.08E2,4.62E2,9.1E2,2.7E1,1.8E1,7E1,4E0,1E0,2.6E1,9.8E1,1.82E2,5E0,4E0,2.9E1,6E0,1.82E2,8E0,9E0,2.7E1,2E0,9.2E1,1.45E2,1E0,2.06E2,2E0,7.5E1,3.87E2,4E1,8.7E2,2E1,7E0,1.7E1,1E0,1.4E1,5.6E1,3E0,1E0,4E0,2.2E1,2.1E1,7.7E1,9E1,9.2E1,1E0,4E0,2E0,2E0,2.3E1,6E0,1E0,5E0,1.66E2,1.6E1,4E0,4E0,3E0,6E0],"tree_param":{"num_deleted":"0","num_feature":"6","num_nodes":"93","size_leaf_vector":"1"}},{"base_weights":[-8.727911E1,4.4480303E3,-1.2743074E4,-1.0054747E4,5.4156235E3,-1.691958E4,-6.115357E3,-9.7913125E3,-9.598378E3,1.6546771E4,4.780842E3,-2.3217998E4,-1.4410718E4,5.0111243E2,-9.926587E3,-1.1305504E4,-7.847286E3,1.511915E4,2.3253906E4,-1.3073158E3,6.351501E3,-1.7577637E4,-2.6367848E4,9.575268E3,-1.6749496E4,-1.2582286E4,7.7395933E3,-1.2518144E4,-3.71733E3,-1.2759349E4,-8.653676E3,1.00453644E3,-2.7459265E3,1.262137E4,1.4108883E4,-1.6312598E4,-9.586101E2,3.9338464E3,7.5732603E3,-1.1711499E4,-2.529733E4,-2.8555086E4,-1.5715223E4,-1.0746937E4,1.2583472E4,-2.364702E4,-1.4688796E4,-1.6637322E4,1.0465781E4,5.8479873E3,1.9320352E4,5.1319355E3,-1.3538723E4,-2.4587766E3,-4.800088E3,-6.9827764E3,-1.636922E3,1.243355E3,-3.617296E3,-3.2791876E2,4.334268E3,-5.922775E3,-2.3840908E3,-3.4643405E2,1.0066861E4,1.2426869E3,-8.822469E3,3.478672E2,2.2822131E3,-5.5044507E3,2.1521082E3,-7.949573E3,-5.512371E2,-7.6433794E3,-1.0887951E4,-5.9814795E3,6.511102E3,-2.479975E3,4.9706953E3,-8.988155E3,-5.423899E3,-3.9664985E3,-6.4644507E3,-4.0060537E3,-1.0639399E4,-5.845488E3,9.093718E3,-3.8819421E3,2.0952317E3,-3.6386106E3,2.2784385E3,-5.6211904E3,3.3837485E2],"categories":[],"categories_nodes":[],"categories_segments":[],"categories_sizes":[],"default_left":[0,0,0,0,0,0,0,0,0,0,0,0,0,0,0,0,0,0,0,0,0,0,0,0,0,0,0,0,0,0,0,0,0,0,0,0,0,0,0,0,0,0,0,0,0,0,0,0,0,0,0,0,0,0,0,0,0,0,0,0,0,0,0,0,0,0,0,0,0,0,0,0,0,0,0,0,0,0,0,0,0,0,0,0,0,0,0,0,0,0,0,0,0],"id":4,"left_children":[1,3,5,7,9,11,13,-1,15,17,19,21,23,25,27,29,31,33,-1,35,37,39,41,43,45,47,49,-1,51,53,55,57,-1,-1,59,61,63,65,67,69,71,73,75,-1,77,79,81,83,85,87,-1,89,91,-1,-1,-1,-1,-1,-1,-1,-1,-1,-1,-1,-1,-1,-1,-1,-1,-1,-1,-1,-1,-1,-1,-1,-1,-1,-1,-1,-1,-1,-1,-1,-1,-1,-1,-1,-1,-1,-1,-1,-1],"loss_changes":[1.5164465E11,2.7348238E10,1.918999E10,9.44084E8,1.2808999E10,6.412804E9,6.838751E9,0E0,2.7299123E8,7.3576653E9,1.6522605E10,1.6684687E9,1.7438544E10,9.567774E9,3.3807634E10,1.1705037E8,7.373947E8,2.047615E9,0E0,1.8418739E9,4.025766E9,1.7868308E9,1.2987392E9,4.2746724E9,3.6467098E9,3.5387095E9,6.5901706E9,0E0,1.2671737E10,4.0129587E8,9.9502694E8,4.1910822E8,0E0,0E0,5.0490368E8,7.265805E7,2.3949793E9,3.3396367E9,1.9051315E8,3.6409976E9,4.867502E8,5.2781466E8,2.803056E9,0E0,2.3806195E9,1.6727409E9,1.9190333E9,1.44301E9,4.1571594E9,1.4564623E9,0E0,3.3654252E9,5.282084E9,0E0,0E0,0E0,0E0,0E0,0E0,0E0,0E0,0E0,0E0,0E0,0E0,0E0,0E0,0E0,0E0,0E0,0E0,0E0,0E0,0E0,0E0,0E0,0E0,0E0,0E0,0E0,0E0,0E0,0E0,0E0,0E0,0E0,0E0,0E0,0E0,0E0,0E0,0E0,0E0],"parents":[2147483647,0,0,1,1,2,2,3,3,4,4,5,5,6,6,8,8,9,9,10,10,11,11,12,12,13,13,14,14,15,15,16,16,17,17,19,19,20,20,21,21,22,22,23,23,24,24,25,25,26,26,28,28,29,29,30,30,31,31,34,34,35,35,36,36,37,37,38,38,39,39,40,40,41,41,42,42,44,44,45,45,46,46,47,47,48,48,49,49,51,51,52,52],"right_children":[2,4,6,8,10,12,14,-1,16,18,20,22,24,26,28,30,32,34,-1,36,38,40,42,44,46,48,50,-1,52,54,56,58,-1,-1,60,62,64,66,68,70,72,74,76,-1,78,80,82,84,86,88,-1,90,92,-1,-1,-1,-1,-1,-1,-1,-1,-1,-1,-1,-1,-1,-1,-1,-1,-1,-1,-1,-1,-1,-1,-1,-1,-1,-1,-1,-1,-1,-1,-1,-1,-1,-1,-1,-1,-1,-1,-1,-1],"split_conditions":[1E0,1E0,3E0,1E0,2E0,1E0,3E0,-9.7913125E3,2.023E3,2E0,3E0,4E0,2E0,2.023E3,8E0,2E0,2E0,2.021E3,2.3253906E4,1E0,2.023E3,2E0,4.6E1,2.021E3,2.022E3,2E0,2E0,-1.2518144E4,1E1,2.022E3,2.022E3,2E0,-2.7459265E3,1.262137E4,1E0,2.023E3,2E0,2E0,1E0,2.023E3,3E0,1.8E1,2.023E3,-1.0746937E4,1E0,7E0,1.8E1,7E1,2E0,1E0,1.9320352E4,2.022E3,3.9E1,-2.4587766E3,-4.800088E3,-6.9827764E3,-1.636922E3,1.243355E3,-3.617296E3,-3.2791876E2,4.334268E3,-5.922775E3,-2.3840908E3,-3.4643405E2,1.0066861E4,1.2426869E3,-8.822469E3,3.478672E2,2.2822131E3,-5.5044507E3,2.1521082E3,-7.949573E3,-5.512371E2,-7.6433794E3,-1.0887951E4,-5.9814795E3,6.511102E3,-2.479975E3,4.9706953E3,-8.988155E3,-5.423899E3,-3.9664985E3,-6.4644507E3,-4.0060537E3,-1.0639399E4,-5.845488E3,9.093718E3,-3.8819421E3,2.0952317E3,-3.6386106E3,2.2784385E3,-5.6211904E3,3.3837485E2],"split_indices":[4,1,1,0,1,1,5,0,3,0,1,5,1,3,5,2,2,3,0,2,3,2,4,3,3,5,0,0,4,3,3,0,0,0,2,3,0,0,2,3,5,4,3,0,2,5,4,4,2,2,0,3,4,0,0,0,0,0,0,0,0,0,0,0,0,0,0,0,0,0,0,0,0,0,0,0,0,0,0,0,0,0,0,0,0,0,0,0,0,0,0,0,0],"split_type":[0,0,0,0,0,0,0,0,0,0,0,0,0,0,0,0,0,0,0,0,0,0,0,0,0,0,0,0,0,0,0,0,0,0,0,0,0,0,0,0,0,0,0,0,0,0,0,0,0,0,0,0,0,0,0,0,0,0,0,0,0,0,0,0,0,0,0,0,0,0,0,0,0,0,0,0,0,0,0,0,0,0,0,0,0,0,0,0,0,0,0,0,0],"sum_hessian":[2.64E3,1.944E3,6.96E2,1.21E2,1.823E3,4.26E2,2.7E2,1E0,1.2E2,9.7E1,1.726E3,1.19E2,3.07E2,9.9E1,1.71E2,5.8E1,6.2E1,9.6E1,1E0,3.54E2,1.372E3,4.5E1,7.4E1,2.7E1,2.8E2,3.5E1,6.4E1,2.7E1,1.44E2,3.5E1,2.3E1,8E0,5.4E1,2E0,9.4E1,7E0,3.47E2,4.62E2,9.1E2,2.7E1,1.8E1,6E1,1.4E1,1E0,2.6E1,6.2E1,2.18E2,3E1,5E0,6.3E1,1E0,7.6E1,6.8E1,1.6E1,1.9E1,3E0,2E1,7E0,1E0,2E0,9.2E1,4E0,3E0,3.46E2,1E0,4.6E2,2E0,5E0,9.05E2,2E1,7E0,1.7E1,1E0,4.6E1,1.4E1,1.3E1,1E0,4E0,2.2E1,2.7E1,3.5E1,1.82E2,3.6E1,2.7E1,3E0,2E0,3E0,3E0,6E1,9E0,6.7E1,5E1,1.8E1],"tree_param":{"num_deleted":"0","num_feature":"6","num_nodes":"93","size_leaf_vector":"1"}},{"base_weights":[-8.7762184E1,3.0133862E3,-9.362968E3,-7.559773E3,3.7727026E3,-1.2264193E4,-4.8868057E3,-7.858832E3,4.7874097E3,1.2729336E4,3.2584453E3,-7.6909033E3,-1.4307564E4,-4.269308E3,-3.0521814E4,-7.211109E3,-1.6997152E4,3.748069E4,2.86882E3,-1.3795829E3,4.491105E3,-1.90356E3,-8.637835E3,-2.0134697E4,-1.0265465E4,-4.7927153E3,6.920689E3,-1.1049413E4,1.5389766E2,-8.322615E3,-6.8218105E3,4.960201E3,-2.4149318E4,2.8051547E4,1.976582E4,-5.7847235E2,-2.5097658E4,2.663279E3,5.427126E3,-1.4410558E4,1.0799443E4,-5.840367E3,-7.694486E3,-1.1671396E4,-2.3229646E4,5.1539697E3,-1.5079051E4,-2.9595625E3,-1.5414377E4,-2.454895E3,-1.6504934E3,-1.018103E4,-4.0340964E3,4.1640903E3,1.6947307E4,-2.7334076E2,1.1693857E4,-1.0447752E4,-3.9521511E3,8.7513995E2,-8.291993E3,1.5939093E3,1.64223E4,-1.9940302E3,-7.4845347E3,2.4331348E3,-2.8561255E3,-9.573828E3,-2.7774639E3,-8.888977E3,-5.4636504E3,-6.8828973E2,6.239981E3,-7.7172227E3,-3.5748071E3,-1.1403955E3,1.7505836E4,1.3960422E3,-6.3332407E3],"categories":[],"categories_nodes":[],"categories_segments":[],"categories_sizes":[],"default_left":[0,0,0,0,0,0,0,0,0,0,0,0,0,0,0,0,0,0,0,0,0,0,0,0,0,0,0,0,0,0,0,0,0,0,0,0,0,0,0,0,0,0,0,0,0,0,0,0,0,0,0,0,0,0,0,0,0,0,0,0,0,0,0,0,0,0,0,0,0,0,0,0,0,0,0,0,0,0,0],"id":5,"left_children":[1,3,5,7,9,11,13,15,-1,17,19,21,23,25,27,29,31,33,-1,35,37,39,41,43,45,47,-1,-1,-1,-1,49,-1,51,53,-1,55,57,59,61,63,-1,-1,65,67,69,71,73,75,77,-1,-1,-1,-1,-1,-1,-1,-1,-1,-1,-1,-1,-1,-1,-1,-1,-1,-1,-1,-1,-1,-1,-1,-1,-1,-1,-1,-1,-1,-1],"loss_changes":[7.599338E10,1.5924699E10,8.537035E9,1.0608292E9,8.470434E9,3.6372767E9,4.0170358E9,6.5875354E8,0E0,7.4793544E9,1.0005426E10,6.740649E8,6.2941716E9,3.787989E9,1.19379E9,8.098309E8,2.317848E9,1.0980137E9,0E0,6.9777766E9,2.3499858E9,9.525447E9,9.5358874E8,2.6625475E9,1.2324473E10,4.8805755E9,0E0,0E0,0E0,0E0,1.778048E8,0E0,2.768924E8,3.2461164E9,0E0,4.7334564E9,9.331748E8,3.6961508E9,4.8461353E9,1.0613829E9,0E0,0E0,2.9919473E9,1.2676209E9,2.0615455E9,4.709136E9,3.935957E9,1.1421192E10,4.327894E9,0E0,0E0,0E0,0E0,0E0,0E0,0E0,0E0,0E0,0E0,0E0,0E0,0E0,0E0,0E0,0E0,0E0,0E0,0E0,0E0,0E0,0E0,0E0,0E0,0E0,0E0,0E0,0E0,0E0,0E0],"parents":[2147483647,0,0,1,1,2,2,3,3,4,4,5,5,6,6,7,7,9,9,10,10,11,11,12,12,13,13,14,14,15,15,16,16,17,17,19,19,20,20,21,21,22,22,23,23,24,24,25,25,30,30,32,32,33,33,35,35,36,36,37,37,38,38,39,39,42,42,43,43,44,44,45,45,46,46,47,47,48,48],"right_children":[2,4,6,8,10,12,14,16,-1,18,20,22,24,26,28,30,32,34,-1,36,38,40,42,44,46,48,-1,-1,-1,-1,50,-1,52,54,-1,56,58,60,62,64,-1,-1,66,68,70,72,74,76,78,-1,-1,-1,-1,-1,-1,-1,-1,-1,-1,-1,-1,-1,-1,-1,-1,-1,-1,-1,-1,-1,-1,-1,-1,-1,-1,-1,-1,-1,-1],"split_conditions":[1E0,1E0,3E0,6.1E1,2E0,2E0,6.3E1,4E0,4.7874097E3,2E0,3E0,2E0,9E0,5.4E1,7.6E1,1E0,1E0,2E0,2.86882E3,6E0,2.023E3,2.023E3,1E0,3E0,1.1E1,2.1E1,6.920689E3,-1.1049413E4,1.5389766E2,-8.322615E3,2.023E3,4.960201E3,2.023E3,2.023E3,1.976582E4,1E0,2E0,2E0,2E0,2.022E3,1.0799443E4,-5.840367E3,2E0,1E0,4E0,1E1,1.5E1,2E1,2.023E3,-2.454895E3,-1.6504934E3,-1.018103E4,-4.0340964E3,4.1640903E3,1.6947307E4,-2.7334076E2,1.1693857E4,-1.0447752E4,-3.9521511E3,8.7513995E2,-8.291993E3,1.5939093E3,1.64223E4,-1.9940302E3,-7.4845347E3,2.4331348E3,-2.8561255E3,-9.573828E3,-2.7774639E3,-8.888977E3,-5.4636504E3,-6.8828973E2,6.239981E3,-7.7172227E3,-3.5748071E3,-1.1403955E3,1.7505836E4,1.3960422E3,-6.3332407E3],"split_indices":[5,1,1,4,1,5,4,4,0,2,1,2,4,4,4,0,2,0,0,4,3,3,1,5,4,5,0,0,0,0,3,0,3,3,0,4,2,0,0,3,0,0,1,0,4,4,5,5,3,0,0,0,0,0,0,0,0,0,0,0,0,0,0,0,0,0,0,0,0,0,0,0,0,0,0,0,0,0,0],"split_type":[0,0,0,0,0,0,0,0,0,0,0,0,0,0,0,0,0,0,0,0,0,0,0,0,0,0,0,0,0,0,0,0,0,0,0,0,0,0,0,0,0,0,0,0,0,0,0,0,0,0,0,0,0,0,0,0,0,0,0,0,0,0,0,0,0,0,0,0,0,0,0,0,0,0,0,0,0,0,0],"sum_hessian":[2.64E3,1.979E3,6.61E2,1.32E2,1.847E3,4E2,2.61E2,1.31E2,1E0,9.9E1,1.748E3,1.25E2,2.75E2,2.56E2,5E0,1.24E2,7E0,1E1,8.9E1,3.67E2,1.381E3,1.8E1,1.07E2,1.11E2,1.64E2,2.52E2,4E0,4E0,1E0,1E0,1.23E2,1E0,6E0,9E0,1E0,3.56E2,1.1E1,4.69E2,9.12E2,1.4E1,4E0,7E0,1E2,3.1E1,8E1,3.9E1,1.25E2,2.16E2,3.6E1,5.8E1,6.5E1,2E0,4E0,7E0,2E0,3.54E2,2E0,5E0,6E0,4.66E2,3E0,9.11E2,1E0,9E0,5E0,1E1,9E1,2E0,2.9E1,3.3E1,4.7E1,2.7E1,1.2E1,2.7E1,9.8E1,2.14E2,2E0,8E0,2.8E1],"tree_param":{"num_deleted":"0","num_feature":"6","num_nodes":"79","size_leaf_vector":"1"}},{"base_weights":[-5.971418E1,2.1267817E3,-6.599295E3,-5.4188735E3,2.6686895E3,-1.2912727E4,-5.3452095E3,-5.665446E3,4.0692986E3,9.348002E3,2.2852705E3,-6.413098E3,-1.1744523E4,-7.901588E3,-2.9566738E3,-5.1471987E3,-1.3054873E4,2.9952592E4,2.017739E3,-9.738014E2,3.151445E3,-2.542944E3,-1.3376821E4,-1.1271912E4,-5.115503E3,-2.1148203E4,-1.8796733E3,-7.074223E3,-4.808374E3,4.216171E3,-1.8935256E4,2.1747219E4,1.6800947E4,-3.7293744E2,-1.8768354E4,3.1940872E3,-5.254346E3,-6.2656387E3,1.5677278E4,-7.285741E3,-1.5876671E4,-5.549726E3,-2.0356523E4,-3.082432E3,-1.7973035E4,-2.520261E4,-7.187987E3,-4.613992E1,-1.2253664E4,-2.233923E3,-1.3214788E3,-8.1448237E3,-3.0659133E3,3.0710156E3,1.3557845E4,-1.915686E2,9.355086E3,-7.488197E3,-2.5247837E3,9.440706E2,1.0239396E4,-5.998246E2,-4.9294033E3,9.841184E2,6.070657E3,-3.5616528E1,-4.0261265E3,-3.7929438E3,-7.290971E3,-1.136927E3,-2.8092046E3,-4.992892E3,-7.1954688E3,-1.8732701E3,2.9049988E3,-7.0602495E3,-3.0175474E3,-1.8251626E3,-8.525391E3,8.118906E2,-4.4058843E3,-6.423156E2,8.549977E3,-4.9382764E3,-1.7889692E3],"categories":[],"categories_nodes":[],"categories_segments":[],"categories_sizes":[],"default_left":[0,0,0,0,0,0,0,0,0,0,0,0,0,0,0,0,0,0,0,0,0,0,0,0,0,0,0,0,0,0,0,0,0,0,0,0,0,0,0,0,0,0,0,0,0,0,0,0,0,0,0,0,0,0,0,0,0,0,0,0,0,0,0,0,0,0,0,0,0,0,0,0,0,0,0,0,0,0,0,0,0,0,0,0,0],"id":6,"left_children":[1,3,5,7,9,11,13,15,-1,17,19,-1,21,23,25,27,29,31,-1,33,35,37,39,41,43,45,47,-1,49,-1,51,53,-1,55,57,59,-1,61,63,65,67,69,71,73,75,77,79,81,83,-1,-1,-1,-1,-1,-1,-1,-1,-1,-1,-1,-1,-1,-1,-1,-1,-1,-1,-1,-1,-1,-1,-1,-1,-1,-1,-1,-1,-1,-1,-1,-1,-1,-1,-1,-1],"loss_changes":[3.777708E10,8.1107763E9,5.1724186E9,6.9938534E8,4.7113196E9,8.2672845E8,3.359363E9,4.3830426E8,0E0,5.201491E9,4.940365E9,0E0,1.4379162E9,2.4494715E9,5.602827E9,6.6733286E8,1.541394E9,1.1333878E9,0E0,3.9276954E9,1.2738191E9,1.1834812E9,1.1481508E9,6.125089E9,3.8133606E9,7.244503E8,5.192184E9,0E0,9.917261E7,0E0,2.2367667E8,2.236079E9,0E0,3.0123566E9,5.591949E8,1.9070945E9,0E0,5.743153E8,1.0314362E8,1.1415584E9,1.273086E9,4.6799E8,2.2063104E8,5.2672666E9,6.435579E8,5.647918E8,4.1069686E8,1.3994767E10,9.869235E8,0E0,0E0,0E0,0E0,0E0,0E0,0E0,0E0,0E0,0E0,0E0,0E0,0E0,0E0,0E0,0E0,0E0,0E0,0E0,0E0,0E0,0E0,0E0,0E0,0E0,0E0,0E0,0E0,0E0,0E0,0E0,0E0,0E0,0E0,0E0,0E0],"parents":[2147483647,0,0,1,1,2,2,3,3,4,4,5,5,6,6,7,7,9,9,10,10,12,12,13,13,14,14,15,15,16,16,17,17,19,19,20,20,21,21,22,22,23,23,24,24,25,25,26,26,28,28,30,30,31,31,33,33,34,34,35,35,37,37,38,38,39,39,40,40,41,41,42,42,43,43,44,44,45,45,46,46,47,47,48,48],"right_children":[2,4,6,8,10,12,14,16,-1,18,20,-1,22,24,26,28,30,32,-1,34,36,38,40,42,44,46,48,-1,50,-1,52,54,-1,56,58,60,-1,62,64,66,68,70,72,74,76,78,80,82,84,-1,-1,-1,-1,-1,-1,-1,-1,-1,-1,-1,-1,-1,-1,-1,-1,-1,-1,-1,-1,-1,-1,-1,-1,-1,-1,-1,-1,-1,-1,-1,-1,-1,-1,-1,-1],"split_conditions":[1E0,1E0,1E0,6.1E1,2E0,2.021E3,2.023E3,4E0,4.0692986E3,2E0,3E0,-6.413098E3,1E0,8E0,1E0,1E0,1E0,2E0,2.017739E3,6E0,7E1,3.5E1,4E0,3E0,5.3E1,2.6E1,2.1E1,-7.074223E3,1E0,4.216171E3,2.023E3,2.023E3,1.6800947E4,1E0,2.022E3,6.4E1,-5.254346E3,1.6E1,2.022E3,2E0,2.023E3,3E0,2E0,3.1E1,5.9E1,3E0,2.8E1,1.1E1,3.7E1,-2.233923E3,-1.3214788E3,-8.1448237E3,-3.0659133E3,3.0710156E3,1.3557845E4,-1.915686E2,9.355086E3,-7.488197E3,-2.5247837E3,9.440706E2,1.0239396E4,-5.998246E2,-4.9294033E3,9.841184E2,6.070657E3,-3.5616528E1,-4.0261265E3,-3.7929438E3,-7.290971E3,-1.136927E3,-2.8092046E3,-4.992892E3,-7.1954688E3,-1.8732701E3,2.9049988E3,-7.0602495E3,-3.0175474E3,-1.8251626E3,-8.525391E3,8.118906E2,-4.4058843E3,-6.423156E2,8.549977E3,-4.9382764E3,-1.7889692E3],"split_indices":[5,1,1,4,1,3,3,4,0,2,1,0,2,5,2,0,2,0,0,4,4,4,5,4,5,4,5,0,2,0,3,3,0,4,3,4,0,5,3,2,3,1,2,4,5,4,4,5,4,0,0,0,0,0,0,0,0,0,0,0,0,0,0,0,0,0,0,0,0,0,0,0,0,0,0,0,0,0,0,0,0,0,0,0,0],"split_type":[0,0,0,0,0,0,0,0,0,0,0,0,0,0,0,0,0,0,0,0,0,0,0,0,0,0,0,0,0,0,0,0,0,0,0,0,0,0,0,0,0,0,0,0,0,0,0,0,0,0,0,0,0,0,0,0,0,0,0,0,0,0,0,0,0,0,0,0,0,0,0,0,0,0,0,0,0,0,0,0,0,0,0,0,0],"sum_hessian":[2.64E3,1.979E3,6.61E2,1.32E2,1.847E3,1.08E2,5.53E2,1.31E2,1E0,9.9E1,1.748E3,1.1E1,9.7E1,2.66E2,2.87E2,1.24E2,7E0,1E1,8.9E1,3.67E2,1.381E3,1.5E1,8.2E1,1.19E2,1.47E2,1.5E1,2.72E2,1E0,1.23E2,1E0,6E0,9E0,1E0,3.56E2,1.1E1,1.379E3,2E0,1.3E1,2E0,2.5E1,5.7E1,7.4E1,4.5E1,1.28E2,1.9E1,1.1E1,4E0,2.32E2,4E1,1.4E1,1.09E2,2E0,4E0,7E0,2E0,3.54E2,2E0,6E0,5E0,1.378E3,1E0,1E1,3E0,1E0,1E0,1.2E1,1.3E1,4.3E1,1.4E1,5.2E1,2.2E1,2.5E1,2E1,1.03E2,2.5E1,1E1,9E0,2E0,9E0,2E0,2E0,2.17E2,1.5E1,2.3E1,1.7E1],"tree_param":{"num_deleted":"0","num_feature":"6","num_nodes":"85","size_leaf_vector":"1"}},{"base_weights":[-5.354476E1,1.5023635E3,-4.707087E3,-3.8951294E3,1.8900065E3,-9.481358E3,-3.4316462E3,-4.09933E3,3.458904E3,1.8075514E3,2.0628738E4,-8.586874E3,-8.848655E3,-6.158895E3,-5.0835486E2,-1.310686E4,-3.788249E3,1.7072076E2,2.7113906E3,1.4280807E4,9.974933E3,-3.8053567E3,-1.0765391E4,-2.1708005E3,-2.0452203E4,5.633913E3,-6.0509375E3,-7.6319077E3,3.583745E3,-3.3503347E3,-6.319161E3,4.821329E3,-5.206646E2,6.1995483E3,2.5003032E3,-3.7151824E3,1.3817345E4,-2.178182E3,-6.781618E3,-1.3939385E4,-3.7834214E3,-4.7624976E3,2.468593E3,-1.5624902E4,-2.7328637E4,3.361189E3,2.1470416E4,-1.8600096E4,-2.7104944E3,-1.2855098E3,-7.507637E2,2.5049243E3,-3.2750496E3,-6.788778E3,-6.2010323E1,1.0846275E4,1.4164939E3,7.609599E2,-3.550432E3,2.519461E3,-5.5883906E3,-1.2050121E3,1.4965679E3,-2.579312E3,-7.569237E3,4.4098843E3,-4.682467E3,-1.3001858E3,-3.3393132E3,-3.1311675E3,1.6506669E3,-5.913077E3,-3.0652712E3,-4.903007E3,-9.629369E3,-1.3097555E3,2.3039802E3,-1.0993647E2,1.9565234E4,-1.11885625E4,-4.459463E3,6.6970815E3,-1.3256084E3],"categories":[],"categories_nodes":[],"categories_segments":[],"categories_sizes":[],"default_left":[0,0,0,0,0,0,0,0,0,0,0,0,0,0,0,0,0,0,0,0,0,0,0,0,0,0,0,0,0,0,0,0,0,0,0,0,0,0,0,0,0,0,0,0,0,0,0,0,0,0,0,0,0,0,0,0,0,0,0,0,0,0,0,0,0,0,0,0,0,0,0,0,0,0,0,0,0,0,0,0,0,0,0],"id":7,"left_children":[1,3,5,7,9,11,13,15,-1,17,19,-1,21,23,25,27,29,31,33,-1,35,37,39,41,43,45,47,-1,-1,49,-1,51,53,55,57,59,-1,61,-1,63,65,67,69,71,73,75,77,79,81,-1,-1,-1,-1,-1,-1,-1,-1,-1,-1,-1,-1,-1,-1,-1,-1,-1,-1,-1,-1,-1,-1,-1,-1,-1,-1,-1,-1,-1,-1,-1,-1,-1,-1],"loss_changes":[1.9129192E10,4.1501164E9,3.9985797E9,4.661815E8,2.818065E9,1.430143E9,4.1744804E9,3.2022144E8,0E0,2.7231703E9,1.824168E9,0E0,1.2737014E9,1.5403433E10,8.681273E9,1.5397797E9,9.0534464E8,2.1117883E9,8.577587E8,0E0,3.6289644E9,1.1438083E9,2.1190124E9,2.5728479E9,1.531476E9,4.2828652E9,5.566831E9,0E0,0E0,8.991475E7,0E0,4.8112707E9,3.965742E9,2.7953907E9,6.116992E8,1.2403075E9,0E0,5.0755827E8,0E0,3.8241812E9,7.223298E9,3.2566016E8,3.0720916E9,6.1597184E8,6.804214E8,3.6042388E9,1.4353371E10,1.4008627E9,4.674308E9,0E0,0E0,0E0,0E0,0E0,0E0,0E0,0E0,0E0,0E0,0E0,0E0,0E0,0E0,0E0,0E0,0E0,0E0,0E0,0E0,0E0,0E0,0E0,0E0,0E0,0E0,0E0,0E0,0E0,0E0,0E0,0E0,0E0,0E0],"parents":[2147483647,0,0,1,1,2,2,3,3,4,4,5,5,6,6,7,7,9,9,10,10,12,12,13,13,14,14,15,15,16,16,17,17,18,18,20,20,21,21,22,22,23,23,24,24,25,25,26,26,29,29,31,31,32,32,33,33,34,34,35,35,37,37,39,39,40,40,41,41,42,42,43,43,44,44,45,45,46,46,47,47,48,48],"right_children":[2,4,6,8,10,12,14,16,-1,18,20,-1,22,24,26,28,30,32,34,-1,36,38,40,42,44,46,48,-1,-1,50,-1,52,54,56,58,60,-1,62,-1,64,66,68,70,72,74,76,78,80,82,-1,-1,-1,-1,-1,-1,-1,-1,-1,-1,-1,-1,-1,-1,-1,-1,-1,-1,-1,-1,-1,-1,-1,-1,-1,-1,-1,-1,-1,-1,-1,-1,-1,-1],"split_conditions":[1E0,1E0,2.022E3,6.1E1,3E0,1E0,8E0,1E0,3.458904E3,2.023E3,2E0,-8.586874E3,3E0,4E0,1.2E1,6E0,3.1E1,2.022E3,2E0,1.4280807E4,1E0,5.5E1,2.7E1,3E0,3E0,1E1,1.4E1,-7.6319077E3,3.583745E3,2.023E3,-6.319161E3,1E0,1E0,2E0,1.3E1,3E0,1.3817345E4,2E0,-6.781618E3,1E1,3.8E1,3E0,2.023E3,5E0,2.023E3,3E0,2.023E3,1.3E1,1.6E1,-1.2855098E3,-7.507637E2,2.5049243E3,-3.2750496E3,-6.788778E3,-6.2010323E1,1.0846275E4,1.4164939E3,7.609599E2,-3.550432E3,2.519461E3,-5.5883906E3,-1.2050121E3,1.4965679E3,-2.579312E3,-7.569237E3,4.4098843E3,-4.682467E3,-1.3001858E3,-3.3393132E3,-3.1311675E3,1.6506669E3,-5.913077E3,-3.0652712E3,-4.903007E3,-9.629369E3,-1.3097555E3,2.3039802E3,-1.0993647E2,1.9565234E4,-1.11885625E4,-4.459463E3,6.6970815E3,-1.3256084E3],"split_indices":[5,1,3,4,0,0,5,0,0,3,1,0,5,5,5,4,4,3,1,0,4,4,4,1,1,4,4,0,0,3,0,4,2,2,4,1,0,2,0,4,5,4,3,5,3,1,3,5,4,0,0,0,0,0,0,0,0,0,0,0,0,0,0,0,0,0,0,0,0,0,0,0,0,0,0,0,0,0,0,0,0,0,0],"split_type":[0,0,0,0,0,0,0,0,0,0,0,0,0,0,0,0,0,0,0,0,0,0,0,0,0,0,0,0,0,0,0,0,0,0,0,0,0,0,0,0,0,0,0,0,0,0,0,0,0,0,0,0,0,0,0,0,0,0,0,0,0,0,0,0,0,0,0,0,0,0,0,0,0,0,0,0,0,0,0,0,0,0,0],"sum_hessian":[2.64E3,1.979E3,6.61E2,1.32E2,1.847E3,1.38E2,5.23E2,1.31E2,1E0,1.84E3,7E0,3E0,1.35E2,2.7E2,2.53E2,3E0,1.28E2,6.55E2,1.185E3,1E0,6E0,3.8E1,9.7E1,2.12E2,5.8E1,1.2E2,1.33E2,2E0,1E0,1.26E2,2E0,8.4E1,5.71E2,6.6E1,1.119E3,5E0,1E0,3.6E1,2E0,6.6E1,3.1E1,1.36E2,7.6E1,3.6E1,2.2E1,1.06E2,1.4E1,2.7E1,1.06E2,5.8E1,6.8E1,6.9E1,1.5E1,7E0,5.64E2,2E0,6.4E1,1.117E3,2E0,3E0,2E0,2.9E1,7E0,4.6E1,2E1,1.2E1,1.9E1,1.29E2,7E0,1.4E1,6.2E1,1.9E1,1.7E1,8E0,1.4E1,3.8E1,6.8E1,1E1,4E0,3E0,2.4E1,6E0,1E2],"tree_param":{"num_deleted":"0","num_feature":"6","num_nodes":"83","size_leaf_vector":"1"}},{"base_weights":[-4.7708046E1,1.0607186E3,-3.3628699E3,-2.7938435E3,1.3375564E3,-6.820389E3,-2.439286E3,-2.9634973E3,2.940068E3,1.2662977E3,1.756877E4,-6.654827E3,-6.318405E3,-4.4205654E3,-3.157977E2,-1.0186843E4,-2.716545E3,4.955934E3,1.0560049E3,1.2138685E4,8.517942E3,-4.785836E3,-1.0442602E4,-1.5482933E3,-1.4715029E4,4.1127417E3,-4.312346E3,-6.1055264E3,3.0461836E3,-2.3612678E3,-5.055328E3,8.149088E3,4.2180063E3,-1.2943782E3,1.6773492E3,-3.1121145E3,1.1744742E4,-6.0807407E3,6.361636E3,-2.6634045E3,-1.8980326E4,-3.3676116E3,1.7087833E3,-1.2715135E4,-2.775494E4,2.3733547E3,1.7237104E4,-1.4510919E4,-2.0683994E3,-1.2698723E3,-6.2757715E2,1.1258364E3,5.263175E3,-1.126914E3,1.6837836E2,2.1599448E3,4.5591766E2,3.7953298E3,-4.246949E3,-1.3293273E3,-5.69994E3,6.384241E3,-4.739258E3,-2.4988003E3,3.583596E3,-6.1626777E3,9.0158795E2,-1.0635511E3,1.7235219E3,-2.659409E2,3.0794084E3,-3.1504355E3,-4.8371274E3,-9.080322E3,-1.9017223E3,8.341253E3,5.6274945E2,-1.2726151E3,2.159865E4,-8.671136E3,-3.3235273E3,2.5346016E3,-1.6648398E3],"categories":[],"categories_nodes":[],"categories_segments":[],"categories_sizes":[],"default_left":[0,0,0,0,0,0,0,0,0,0,0,0,0,0,0,0,0,0,0,0,0,0,0,0,0,0,0,0,0,0,0,0,0,0,0,0,0,0,0,0,0,0,0,0,0,0,0,0,0,0,0,0,0,0,0,0,0,0,0,0,0,0,0,0,0,0,0,0,0,0,0,0,0,0,0,0,0,0,0,0,0,0,0],"id":8,"left_children":[1,3,5,7,9,11,13,15,-1,17,19,-1,21,23,25,27,29,31,33,-1,35,37,39,41,43,45,47,-1,-1,49,-1,-1,51,53,55,57,-1,59,61,63,65,67,69,71,73,75,77,79,81,-1,-1,-1,-1,-1,-1,-1,-1,-1,-1,-1,-1,-1,-1,-1,-1,-1,-1,-1,-1,-1,-1,-1,-1,-1,-1,-1,-1,-1,-1,-1,-1,-1,-1],"loss_changes":[9.708222E9,2.1165716E9,2.0973338E9,3.1321485E8,2.1151775E9,9.3176166E8,2.2031895E9,2.0779174E8,0E0,1.4232059E9,1.3129864E9,0E0,8.0962714E8,7.9902807E9,4.513249E9,1.0336997E9,6.0800704E8,1.5078034E9,2.547644E9,0E0,2.6155346E9,1.4966103E9,2.3404472E9,1.2679199E9,1.1857203E9,2.7213202E9,3.036583E9,0E0,0E0,5.516768E7,0E0,0E0,5.3550874E8,1.6696422E9,1.189439E9,1.2236649E9,0E0,1.8551949E9,3.9727424E9,1.7549363E9,6.455158E8,2.4203853E8,1.7188652E9,2.3059456E8,1.8482688E8,1.3143058E9,1.6771708E10,8.6547405E8,4.1106647E9,0E0,0E0,0E0,0E0,0E0,0E0,0E0,0E0,0E0,0E0,0E0,0E0,0E0,0E0,0E0,0E0,0E0,0E0,0E0,0E0,0E0,0E0,0E0,0E0,0E0,0E0,0E0,0E0,0E0,0E0,0E0,0E0,0E0,0E0],"parents":[2147483647,0,0,1,1,2,2,3,3,4,4,5,5,6,6,7,7,9,9,10,10,12,12,13,13,14,14,15,15,16,16,17,17,18,18,20,20,21,21,22,22,23,23,24,24,25,25,26,26,29,29,32,32,33,33,34,34,35,35,37,37,38,38,39,39,40,40,41,41,42,42,43,43,44,44,45,45,46,46,47,47,48,48],"right_children":[2,4,6,8,10,12,14,16,-1,18,20,-1,22,24,26,28,30,32,34,-1,36,38,40,42,44,46,48,-1,-1,50,-1,-1,52,54,56,58,-1,60,62,64,66,68,70,72,74,76,78,80,82,-1,-1,-1,-1,-1,-1,-1,-1,-1,-1,-1,-1,-1,-1,-1,-1,-1,-1,-1,-1,-1,-1,-1,-1,-1,-1,-1,-1,-1,-1,-1,-1,-1,-1],"split_conditions":[1E0,1E0,2.022E3,6.1E1,3E0,1E0,8E0,1E0,2.940068E3,2E0,2E0,-6.654827E3,2E0,4E0,1.2E1,6E0,3.1E1,2.021E3,3E0,1.2138685E4,1E0,6.5E1,8E0,3E0,6E0,1.1E1,1.5E1,-6.1055264E3,3.0461836E3,1E0,-5.055328E3,8.149088E3,1E0,2.023E3,2.022E3,2.022E3,1.1744742E4,4.3E1,7.9E1,3E0,5.5E1,4.2E1,2E0,3E0,2.7E1,1E0,2.023E3,1.2E1,2.1E1,-1.2698723E3,-6.2757715E2,1.1258364E3,5.263175E3,-1.126914E3,1.6837836E2,2.1599448E3,4.5591766E2,3.7953298E3,-4.246949E3,-1.3293273E3,-5.69994E3,6.384241E3,-4.739258E3,-2.4988003E3,3.583596E3,-6.1626777E3,9.0158795E2,-1.0635511E3,1.7235219E3,-2.659409E2,3.0794084E3,-3.1504355E3,-4.8371274E3,-9.080322E3,-1.9017223E3,8.341253E3,5.6274945E2,-1.2726151E3,2.159865E4,-8.671136E3,-3.3235273E3,2.5346016E3,-1.6648398E3],"split_indices":[5,1,3,4,0,0,5,0,0,1,1,0,2,5,5,4,4,3,1,0,4,4,4,1,4,5,5,0,0,2,0,0,4,3,3,3,0,4,4,1,5,4,4,1,4,0,3,4,5,0,0,0,0,0,0,0,0,0,0,0,0,0,0,0,0,0,0,0,0,0,0,0,0,0,0,0,0,0,0,0,0,0,0],"split_type":[0,0,0,0,0,0,0,0,0,0,0,0,0,0,0,0,0,0,0,0,0,0,0,0,0,0,0,0,0,0,0,0,0,0,0,0,0,0,0,0,0,0,0,0,0,0,0,0,0,0,0,0,0,0,0,0,0,0,0,0,0,0,0,0,0,0,0,0,0,0,0,0,0,0,0,0,0,0,0,0,0,0,0],"sum_hessian":[2.64E3,1.979E3,6.61E2,1.32E2,1.847E3,1.38E2,5.23E2,1.31E2,1E0,1.84E3,7E0,3E0,1.35E2,2.7E2,2.53E2,3E0,1.28E2,9.8E1,1.742E3,1E0,6E0,1E2,3.5E1,2.12E2,5.8E1,1.2E2,1.33E2,2E0,1E0,1.26E2,2E0,2E0,9.6E1,3.64E2,1.378E3,5E0,1E0,9E1,1E1,1.9E1,1.6E1,1.36E2,7.6E1,5.2E1,6E0,1.07E2,1.3E1,2.3E1,1.1E2,1.4E1,1.12E2,9.4E1,2E0,1.56E2,2.08E2,3.7E1,1.341E3,2E0,3E0,8.1E1,9E0,6E0,4E0,1.4E1,5E0,1.5E1,1E0,1.34E2,2E0,5.9E1,1.7E1,3.4E1,1.8E1,5E0,1E0,1E0,1.06E2,1E1,3E0,3E0,2E1,2.7E1,8.3E1],"tree_param":{"num_deleted":"0","num_feature":"6","num_nodes":"83","size_leaf_vector":"1"}},{"base_weights":[-2.622307E1,7.589419E2,-2.374562E3,7.9714276E2,-4.34695E3,-5.8487954E3,-1.6867172E3,7.6836694E2,8.644402E3,-6.968707E3,-8.2398956E2,7.243789E3,-2.1224573E3,-2.223944E2,1.3332305E3,-5.375071E3,-4.761565E3,1.3143959E4,-4.8837397E3,-5.6365337E3,9.036616E3,-4.8289155E3,-9.252596E2,3.2918472E3,-8.1631104E2,-1.436486E3,1.4951707E3,-6.911191E3,5.60805E3,7.0900645E3,1.3839528E3,-7.5259014E3,5.608627E3,1.3683959E4,3.6941497E3,1.4244278E4,-7.4627266E3,-4.127693E3,1.2971838E3,7.342078E2,5.856971E3,-4.2036523E3,-1.6583702E2,9.1003503E2,-6.9638354E2,-1.7282207E3,4.6661832E2,-1.6796063E3,-4.816539E3,5.149093E3,-1.4868857E3,-2.990921E3,1.9161891E3,1.7043806E3,1.1539751E4,2.312294E3,-6.670171E3,-1.0504485E3,1.68704E4,-1.126763E3,-4.7153335E3,-1.1679476E3,-4.320096E3,6.43003E3,-1.211618E2],"categories":[],"categories_nodes":[],"categories_segments":[],"categories_sizes":[],"default_left":[0,0,0,0,0,0,0,0,0,0,0,0,0,0,0,0,0,0,0,0,0,0,0,0,0,0,0,0,0,0,0,0,0,0,0,0,0,0,0,0,0,0,0,0,0,0,0,0,0,0,0,0,0,0,0,0,0,0,0,0,0,0,0,0,0],"id":9,"left_children":[1,3,5,7,-1,9,11,13,-1,15,17,19,21,23,25,27,-1,29,31,-1,33,35,37,39,41,43,45,47,49,-1,-1,51,-1,53,55,57,59,61,63,-1,-1,-1,-1,-1,-1,-1,-1,-1,-1,-1,-1,-1,-1,-1,-1,-1,-1,-1,-1,-1,-1,-1,-1,-1,-1],"loss_changes":[4.871366E9,1.1649334E9,1.5721382E9,1.570964E9,0E0,6.076375E8,2.1711985E9,1.1055953E9,0E0,1.1774572E9,1.2550258E9,1.3832375E9,1.7095793E9,1.5012728E9,5.663967E8,1.3378552E9,0E0,3.3839616E8,1.199799E9,0E0,5.701564E8,8.244401E9,2.6244936E9,1.3777697E9,2.1308467E9,2.8388902E8,5.2852608E8,7.262108E8,1.3058396E9,0E0,0E0,6.077047E8,0E0,2.3596467E9,1.5241788E9,1.5099943E10,4.316799E9,3.0773888E8,7.4757873E9,0E0,0E0,0E0,0E0,0E0,0E0,0E0,0E0,0E0,0E0,0E0,0E0,0E0,0E0,0E0,0E0,0E0,0E0,0E0,0E0,0E0,0E0,0E0,0E0,0E0,0E0],"parents":[2147483647,0,0,1,1,2,2,3,3,5,5,6,6,7,7,9,9,10,10,11,11,12,12,13,13,14,14,15,15,17,17,18,18,20,20,21,21,22,22,23,23,24,24,25,25,26,26,27,27,28,28,31,31,33,33,34,34,35,35,36,36,37,37,38,38],"right_children":[2,4,6,8,-1,10,12,14,-1,16,18,20,22,24,26,28,-1,30,32,-1,34,36,38,40,42,44,46,48,50,-1,-1,52,-1,54,56,58,60,62,64,-1,-1,-1,-1,-1,-1,-1,-1,-1,-1,-1,-1,-1,-1,-1,-1,-1,-1,-1,-1,-1,-1,-1,-1,-1,-1],"split_conditions":[1E0,7E1,1E0,6.6E1,-4.34695E3,3.5E1,2E0,2.023E3,8.644402E3,1.8E1,9E0,2.021E3,2E0,2.022E3,1E0,1.4E1,-4.761565E3,1E0,2.023E3,-5.6365337E3,2E0,2E0,2E0,2E0,1E0,2E0,1E0,1.2E1,1.6E1,7.0900645E3,1.3839528E3,2E0,5.608627E3,3.1E1,3E0,2.023E3,2.023E3,2E0,3E0,7.342078E2,5.856971E3,-4.2036523E3,-1.6583702E2,9.1003503E2,-6.9638354E2,-1.7282207E3,4.6661832E2,-1.6796063E3,-4.816539E3,5.149093E3,-1.4868857E3,-2.990921E3,1.9161891E3,1.7043806E3,1.1539751E4,2.312294E3,-6.670171E3,-1.0504485E3,1.68704E4,-1.126763E3,-4.7153335E3,-1.1679476E3,-4.320096E3,6.43003E3,-1.211618E2],"split_indices":[5,4,1,4,0,4,1,3,0,4,5,3,2,3,1,4,0,0,3,0,2,5,5,0,2,2,2,5,5,0,0,0,0,4,4,3,3,4,4,0,0,0,0,0,0,0,0,0,0,0,0,0,0,0,0,0,0,0,0,0,0,0,0,0,0],"split_type":[0,0,0,0,0,0,0,0,0,0,0,0,0,0,0,0,0,0,0,0,0,0,0,0,0,0,0,0,0,0,0,0,0,0,0,0,0,0,0,0,0,0,0,0,0,0,0,0,0,0,0,0,0,0,0,0,0,0,0,0,0,0,0,0,0],"sum_hessian":[2.64E3,1.979E3,6.61E2,1.975E3,4E0,1.08E2,5.53E2,1.974E3,1E0,8.8E1,2E1,2.5E1,5.28E2,7.17E2,1.257E3,7.6E1,1.2E1,4E0,1.6E1,1E0,2.4E1,1.61E2,3.67E2,1.03E2,6.14E2,6.9E1,1.188E3,6.7E1,9E0,1E0,3E0,1.5E1,1E0,1.2E1,1.2E1,1.9E1,1.42E2,1.5E2,2.17E2,9.9E1,4E0,1.1E1,6.03E2,1.1E1,5.8E1,9E0,1.179E3,6E1,7E0,4E0,5E0,1.3E1,2E0,1E1,2E0,1.1E1,1E0,1.4E1,5E0,9.9E1,4.3E1,1.48E2,2E0,1.6E1,2.01E2],"tree_param":{"num_deleted":"0","num_feature":"6","num_nodes":"65","size_leaf_vector":"1"}},{"base_weights":[-8.917337E0,-1.295184E3,7.73182E2,-5.6558545E2,-3.2043655E3,8.32503E2,-8.997183E3,-6.75932E2,9.394926E3,-5.67589E3,-1.5073043E3,7.488479E2,7.0218345E3,-8.608001E3,-4.8647803E2,5.90246E2,-1.3633882E3,2.5219576E4,-5.14378E3,-5.349709E3,-6.282303E3,4.8276953E3,-3.5064526E3,8.198348E2,-1.5816942E4,-6.4009805E3,1.1504687E4,-1.7831554E3,3.742108E3,-1.096476E3,-1.0559374E4,-1.1083958E3,1.0826762E4,1.0185457E3,-2.4381904E3,-5.6718438E3,4.685364E3,5.7881406E3,-4.8944497E3,-6.751204E3,5.3984656E2,7.311883E2,3.651668E4,-8.0249384E2,-6.1616196E3,-3.1706406E3,2.1657188E3,-2.1706318E3,7.3477407E3,-9.986568E2,-8.883507E1,6.3724253E3,9.6495013E2,-3.8352563E2,7.986319E3,-6.036353E3,-1.2221997E3,-4.8628784E3,-1.5960294E3,-5.157246E2,3.5848054E3,8.391561E2,3.685406E3,-2.7670975E2,-3.4906282E3,3.5781062E3,-1.0334934E3,2.5835037E2,-8.5442883E2,5.8442816E2,2.1033367E4],"categories":[],"categories_nodes":[],"categories_segments":[],"categories_sizes":[],"default_left":[0,0,0,0,0,0,0,0,0,0,0,0,0,0,0,0,0,0,0,0,0,0,0,0,0,0,0,0,0,0,0,0,0,0,0,0,0,0,0,0,0,0,0,0,0,0,0,0,0,0,0,0,0,0,0,0,0,0,0,0,0,0,0,0,0,0,0,0,0,0,0],"id":10,"left_children":[1,3,5,7,9,11,13,15,17,19,21,23,-1,-1,25,27,29,31,33,35,-1,37,39,41,43,45,47,49,51,53,55,-1,-1,-1,-1,57,59,61,-1,63,65,67,69,-1,-1,-1,-1,-1,-1,-1,-1,-1,-1,-1,-1,-1,-1,-1,-1,-1,-1,-1,-1,-1,-1,-1,-1,-1,-1,-1,-1],"loss_changes":[2.6578166E9,1.3897308E9,9.597525E8,8.021048E8,1.1490796E9,3.0681144E9,1.6623224E9,6.249115E8,1.9702833E9,4.4564173E8,2.1065876E9,1.9285956E9,0E0,0E0,6.410154E8,1.8992731E9,1.129774E9,1.3904847E9,1.5497382E8,3.853988E8,0E0,9.066822E8,1.6579281E9,5.109117E9,3.7943424E8,4.1689222E8,9.0739174E8,3.3229914E8,9.3423424E8,2.3185132E9,7.2418074E8,0E0,0E0,0E0,0E0,3.1407744E8,2.0662915E8,7.234413E8,0E0,1.982122E9,2.6275139E9,7.561314E8,4.508679E9,0E0,0E0,0E0,0E0,0E0,0E0,0E0,0E0,0E0,0E0,0E0,0E0,0E0,0E0,0E0,0E0,0E0,0E0,0E0,0E0,0E0,0E0,0E0,0E0,0E0,0E0,0E0,0E0],"parents":[2147483647,0,0,1,1,2,2,3,3,4,4,5,5,6,6,7,7,8,8,9,9,10,10,11,11,14,14,15,15,16,16,17,17,18,18,19,19,21,21,22,22,23,23,24,24,25,25,26,26,27,27,28,28,29,29,30,30,35,35,36,36,37,37,39,39,40,40,41,41,42,42],"right_children":[2,4,6,8,10,12,14,16,18,20,22,24,-1,-1,26,28,30,32,34,36,-1,38,40,42,44,46,48,50,52,54,56,-1,-1,-1,-1,58,60,62,-1,64,66,68,70,-1,-1,-1,-1,-1,-1,-1,-1,-1,-1,-1,-1,-1,-1,-1,-1,-1,-1,-1,-1,-1,-1,-1,-1,-1,-1,-1,-1],"split_conditions":[3E0,2E0,6.3E1,2E0,9E0,5.4E1,6.4E1,2E0,2.022E3,8E0,1.1E1,4.5E1,7.0218345E3,-8.608001E3,1E0,1E0,6E0,1E0,3E0,5.2E1,-6.282303E3,1.2E1,3.5E1,4E1,2E0,7.8E1,2.022E3,2.023E3,2.021E3,2E0,2.3E1,-1.1083958E3,1.0826762E4,1.0185457E3,-2.4381904E3,1E0,1E0,1E1,-4.8944497E3,1.8E1,4.4E1,1.1E1,2.022E3,-8.0249384E2,-6.1616196E3,-3.1706406E3,2.1657188E3,-2.1706318E3,7.3477407E3,-9.986568E2,-8.883507E1,6.3724253E3,9.6495013E2,-3.8352563E2,7.986319E3,-6.036353E3,-1.2221997E3,-4.8628784E3,-1.5960294E3,-5.157246E2,3.5848054E3,8.391561E2,3.685406E3,-2.7670975E2,-3.4906282E3,3.5781062E3,-1.0334934E3,2.5835037E2,-8.5442883E2,5.8442816E2,2.1033367E4],"split_indices":[1,5,4,0,4,4,4,1,3,4,4,4,0,0,2,1,4,1,0,5,0,5,4,4,2,4,3,3,3,4,4,0,0,0,0,0,2,4,0,4,4,4,3,0,0,0,0,0,0,0,0,0,0,0,0,0,0,0,0,0,0,0,0,0,0,0,0,0,0,0,0],"split_type":[0,0,0,0,0,0,0,0,0,0,0,0,0,0,0,0,0,0,0,0,0,0,0,0,0,0,0,0,0,0,0,0,0,0,0,0,0,0,0,0,0,0,0,0,0,0,0,0,0,0,0,0,0,0,0,0,0,0,0,0,0,0,0,0,0,0,0,0,0,0,0],"sum_hessian":[2.64E3,9.98E2,1.642E3,7.23E2,2.75E2,1.633E3,9E0,7.16E2,7E0,1.11E2,1.64E2,1.628E3,5E0,2E0,7E0,2.52E2,4.64E2,3E0,4E0,1.1E2,1E0,3.9E1,1.25E2,1.622E3,6E0,5E0,2E0,1.44E2,1.08E2,4.52E2,1.2E1,1E0,2E0,1E0,3E0,1.07E2,3E0,3.8E1,1E0,6.9E1,5.6E1,1.619E3,3E0,2E0,4E0,4E0,1E0,1E0,1E0,7E1,7.4E1,2E0,1.06E2,4.5E2,2E0,4E0,8E0,2E0,1.05E2,2E0,1E0,2.7E1,1.1E1,3.2E1,3.7E1,1.4E1,4.2E1,1.563E3,5.6E1,2E0,1E0],"tree_param":{"num_deleted":"0","num_feature":"6","num_nodes":"71","size_leaf_vector":"1"}},{"base_weights":[1.4379275E0,-9.0299554E2,5.513634E2,-8.4045734E2,-4.8747773E3,-5.7965947E3,6.1341254E2,-2.1459866E2,-1.7802787E3,2.1008152E3,-1.3956606E4,4.9423425E2,9.290963E3,-3.2002518E2,7.613788E3,-2.0265791E3,1.2266873E4,-2.9964844E1,2.8720583E3,-1.7703607E4,1.840861E3,5.4560846E2,-6.3797246E3,3.3248027E4,2.1200579E3,-1.3784119E3,4.523267E2,2.0083297E4,-3.8845767E3,-1.8604147E3,-6.885732E3,2.105273E4,-6.4651797E3,2.7484268E3,-2.6517947E3,-9.315033E3,-6.499885E3,5.0240887E2,2.3317123E4,-1.1077187E4,2.4121594E3,3.528831E3,1.787836E4,9.343603E3,-1.3884298E4,1.0781499E3,-5.3390405E2,1.920779E3,1.9219995E1,-9.42136E2,8.66141E3,8.6576373E2,-1.8895981E3,-5.998239E2,7.83149E3,1.1621855E4,2.0838467E3,2.6052903E3,-5.514621E3,-3.5354314E3,1.00750507E3,-5.275007E3,-2.0934221E2,1.630166E2,-2.659776E3,8.494345E3,1.998361E3,-1.4015063E3,-4.894429E3,2.0946E3,-2.3800806E3,3.8382366E3,-1.9268505E3,-7.887903E2,-4.6828315E3],"categories":[],"categories_nodes":[],"categories_segments":[],"categories_sizes":[],"default_left":[0,0,0,0,0,0,0,0,0,0,0,0,0,0,0,0,0,0,0,0,0,0,0,0,0,0,0,0,0,0,0,0,0,0,0,0,0,0,0,0,0,0,0,0,0,0,0,0,0,0,0,0,0,0,0,0,0,0,0,0,0,0,0,0,0,0,0,0,0,0,0,0,0,0,0],"id":11,"left_children":[1,3,5,7,-1,9,11,13,15,17,19,21,23,25,27,29,31,33,-1,35,-1,37,39,41,43,45,47,49,51,53,-1,55,57,-1,59,61,-1,63,65,67,69,-1,-1,71,73,-1,-1,-1,-1,-1,-1,-1,-1,-1,-1,-1,-1,-1,-1,-1,-1,-1,-1,-1,-1,-1,-1,-1,-1,-1,-1,-1,-1,-1,-1],"loss_changes":[1.3140547E9,9.451111E8,6.507091E8,5.854606E8,0E0,1.06040755E9,1.679046E9,4.9680298E8,1.4018682E9,1.4359122E8,7.109354E8,5.709838E8,3.7089766E9,4.8455206E8,1.2250468E9,1.3203359E9,1.2881498E9,2.1708021E8,0E0,3.086592E7,0E0,1.5583026E9,5.2231443E8,2.1293107E9,2.2106767E9,5.051968E8,7.920062E8,9.070367E8,9.989939E7,1.5681796E9,0E0,9.784092E8,7.0123955E8,0E0,4.2381094E8,2.7273024E8,0E0,6.1677325E8,6.109837E7,1.921769E8,2.917848E8,0E0,0E0,7.894057E8,7.545664E7,0E0,0E0,0E0,0E0,0E0,0E0,0E0,0E0,0E0,0E0,0E0,0E0,0E0,0E0,0E0,0E0,0E0,0E0,0E0,0E0,0E0,0E0,0E0,0E0,0E0,0E0,0E0,0E0,0E0,0E0],"parents":[2147483647,0,0,1,1,2,2,3,3,5,5,6,6,7,7,8,8,9,9,10,10,11,11,12,12,13,13,14,14,15,15,16,16,17,17,19,19,21,21,22,22,23,23,24,24,25,25,26,26,27,27,28,28,29,29,31,31,32,32,34,34,35,35,37,37,38,38,39,39,40,40,43,43,44,44],"right_children":[2,4,6,8,-1,10,12,14,16,18,20,22,24,26,28,30,32,34,-1,36,-1,38,40,42,44,46,48,50,52,54,-1,56,58,-1,60,62,-1,64,66,68,70,-1,-1,72,74,-1,-1,-1,-1,-1,-1,-1,-1,-1,-1,-1,-1,-1,-1,-1,-1,-1,-1,-1,-1,-1,-1,-1,-1,-1,-1,-1,-1,-1,-1],"split_conditions":[3E0,7.9E1,2.021E3,1E0,-4.8747773E3,1E1,3.9E1,2E0,7.2E1,3E0,7.4E1,2.9E1,4.1E1,2.023E3,2.022E3,6.9E1,2E0,1E0,2.8720583E3,4.2E1,1.840861E3,2.8E1,3.5E1,4E1,2.023E3,2.021E3,2E0,1E0,3E0,6.8E1,-6.885732E3,3E1,1E0,2.7484268E3,2E0,2.1E1,-6.499885E3,2.5E1,1E0,3.5E1,2E0,3.528831E3,1.787836E4,7E1,2E0,1.0781499E3,-5.3390405E2,1.920779E3,1.9219995E1,-9.42136E2,8.66141E3,8.6576373E2,-1.8895981E3,-5.998239E2,7.83149E3,1.1621855E4,2.0838467E3,2.6052903E3,-5.514621E3,-3.5354314E3,1.00750507E3,-5.275007E3,-2.0934221E2,1.630166E2,-2.659776E3,8.494345E3,1.998361E3,-1.4015063E3,-4.894429E3,2.0946E3,-2.3800806E3,3.8382366E3,-1.9268505E3,-7.887903E2,-4.6828315E3],"split_indices":[1,4,3,5,0,4,4,0,4,4,4,5,4,3,3,4,2,2,0,4,0,5,5,4,3,3,2,1,0,4,0,5,0,0,2,4,0,4,2,4,0,0,0,4,2,0,0,0,0,0,0,0,0,0,0,0,0,0,0,0,0,0,0,0,0,0,0,0,0,0,0,0,0,0,0],"split_type":[0,0,0,0,0,0,0,0,0,0,0,0,0,0,0,0,0,0,0,0,0,0,0,0,0,0,0,0,0,0,0,0,0,0,0,0,0,0,0,0,0,0,0,0,0,0,0,0,0,0,0,0,0,0,0,0,0,0,0,0,0,0,0,0,0,0,0,0,0,0,0,0,0,0,0],"sum_hessian":[2.64E3,9.98E2,1.642E3,9.95E2,3E0,1.5E1,1.627E3,5.98E2,3.97E2,8E0,7E0,1.606E3,2.1E1,5.91E2,7E0,3.91E2,6E0,7E0,1E0,6E0,1E0,1.595E3,1.1E1,4E0,1.7E1,2.49E2,3.42E2,3E0,4E0,3.89E2,2E0,4E0,2E0,1E0,6E0,3E0,3E0,1.593E3,2E0,7E0,4E0,3E0,1E0,1.2E1,5E0,1.8E1,2.31E2,2E1,3.22E2,1E0,2E0,1E0,3E0,3.88E2,1E0,1E0,3E0,1E0,1E0,2E0,4E0,1E0,2E0,1.587E3,6E0,1E0,1E0,4E0,3E0,3E0,1E0,1E1,2E0,1E0,4E0],"tree_param":{"num_deleted":"0","num_feature":"6","num_nodes":"75","size_leaf_vector":"1"}},{"base_weights":[1.147972E1,7.973257E1,-5.7375415E3,9.239387E0,7.0880264E3,4.2552783E3,-7.3755625E3,7.649498E1,-7.173482E3,-4.459017E3,1.7303992E4,-1.4227252E3,8.514855E3,-1.0651021E4,1.7350308E3,-2.4946375E1,1.4420561E4,-1.1643935E4,1.5710425E3,2.2975508E3,-4.718711E3,1.8849512E4,-4.1816193E2,-2.0930098E3,1.4527834E3,3.2331863E3,5.9849884E2,-1.2867798E4,-5.7173823E3,2.3363972E3,-1.0949233E4,2.7703516E2,-1.9984738E3,2.7615318E4,8.678107E3,-1.67462E4,-4.4483955E3,5.465742E3,-9.78953E3,9.878576E3,-5.647402E3,2.222171E4,2.7028953E3,-8.612161E3,-7.2547603E3,3.8829712E3,-1.6288479E4,-9.567791E2,-3.970376E3,-4.2519985E3,9.4874405E1,-2.5011494E3,-2.894868E1,-3.6626175E2,1.4173921E4,-8.158875E2,2.9292173E3,-2.4087993E3,-6.634149E3,7.370842E2,-1.7357598E3,-1.7020313E1,-3.5174229E3,-4.208309E3,6.558942E2,3.7708074E3,9.343444E3,-3.9327761E3,-1.2508933E3,6.656767E3,-1.8722693E3,-1.5102089E3,-5.5085854E3],"categories":[],"categories_nodes":[],"categories_segments":[],"categories_sizes":[],"default_left":[0,0,0,0,0,0,0,0,0,0,0,0,0,0,0,0,0,0,0,0,0,0,0,0,0,0,0,0,0,0,0,0,0,0,0,0,0,0,0,0,0,0,0,0,0,0,0,0,0,0,0,0,0,0,0,0,0,0,0,0,0,0,0,0,0,0,0,0,0,0,0,0,0],"id":12,"left_children":[1,3,5,7,9,11,13,15,17,19,21,23,25,27,29,31,33,35,37,39,-1,41,-1,-1,-1,-1,-1,43,45,-1,47,49,51,53,55,57,59,-1,61,-1,63,65,-1,67,-1,69,71,-1,-1,-1,-1,-1,-1,-1,-1,-1,-1,-1,-1,-1,-1,-1,-1,-1,-1,-1,-1,-1,-1,-1,-1,-1,-1],"loss_changes":[1.03675174E9,1.2898648E9,5.3880685E8,1.2497888E9,3.1442284E9,1.3304378E8,8.241971E8,3.7297336E9,9.5650086E8,1.0260447E9,4.308444E8,1.3817798E8,2.2751568E7,1.4516506E8,6.9949126E8,1.5178903E9,1.1242163E9,5.1292288E8,1.880544E9,2.37622E9,0E0,2.3115571E8,0E0,0E0,0E0,0E0,0E0,4.1770445E8,8.7513766E8,0E0,1.099424E7,1.2561901E9,4.0741407E9,2.8881103E9,1.9983789E8,2.43541E8,8.810109E7,0E0,1.1234502E8,0E0,5.558597E8,3.8369024E8,0E0,1.6510157E8,0E0,1.0651311E9,9.08608E5,0E0,0E0,0E0,0E0,0E0,0E0,0E0,0E0,0E0,0E0,0E0,0E0,0E0,0E0,0E0,0E0,0E0,0E0,0E0,0E0,0E0,0E0,0E0,0E0,0E0,0E0],"parents":[2147483647,0,0,1,1,2,2,3,3,4,4,5,5,6,6,7,7,8,8,9,9,10,10,11,11,12,12,13,13,14,14,15,15,16,16,17,17,18,18,19,19,21,21,27,27,28,28,30,30,31,31,32,32,33,33,34,34,35,35,36,36,38,38,40,40,41,41,43,43,45,45,46,46],"right_children":[2,4,6,8,10,12,14,16,18,20,22,24,26,28,30,32,34,36,38,40,-1,42,-1,-1,-1,-1,-1,44,46,-1,48,50,52,54,56,58,60,-1,62,-1,64,66,-1,68,-1,70,72,-1,-1,-1,-1,-1,-1,-1,-1,-1,-1,-1,-1,-1,-1,-1,-1,-1,-1,-1,-1,-1,-1,-1,-1,-1,-1],"split_conditions":[5.4E1,5.5E1,1.5E1,4.4E1,2.022E3,1E0,7.2E1,3.9E1,4E1,2E0,7E1,1E0,1E0,5.9E1,8.1E1,3E0,2.1E1,4.8E1,5.2E1,2E0,-4.718711E3,4.9E1,-4.1816193E2,-2.0930098E3,1.4527834E3,3.2331863E3,5.9849884E2,5.6E1,6.1E1,2.3363972E3,1E0,1E0,8E0,4E0,1E0,4.5E1,2.021E3,5.465742E3,2E0,9.878576E3,2.021E3,1E0,2.7028953E3,2.022E3,-7.2547603E3,2.021E3,6.2E1,-9.567791E2,-3.970376E3,-4.2519985E3,9.4874405E1,-2.5011494E3,-2.894868E1,-3.6626175E2,1.4173921E4,-8.158875E2,2.9292173E3,-2.4087993E3,-6.634149E3,7.370842E2,-1.7357598E3,-1.7020313E1,-3.5174229E3,-4.208309E3,6.558942E2,3.7708074E3,9.343444E3,-3.9327761E3,-1.2508933E3,6.656767E3,-1.8722693E3,-1.5102089E3,-5.5085854E3],"split_indices":[5,4,4,4,3,2,4,4,5,2,4,1,1,5,4,5,5,4,4,1,0,5,0,0,0,0,0,5,5,0,1,0,5,5,2,4,3,0,2,0,3,5,0,3,0,3,4,0,0,0,0,0,0,0,0,0,0,0,0,0,0,0,0,0,0,0,0,0,0,0,0,0,0],"split_type":[0,0,0,0,0,0,0,0,0,0,0,0,0,0,0,0,0,0,0,0,0,0,0,0,0,0,0,0,0,0,0,0,0,0,0,0,0,0,0,0,0,0,0,0,0,0,0,0,0,0,0,0,0,0,0,0,0,0,0,0,0,0,0,0,0,0,0,0,0,0,0,0,0],"sum_hessian":[2.64E3,2.61E3,3E1,2.585E3,2.5E1,4E0,2.6E1,2.562E3,2.3E1,1.2E1,1.3E1,2E0,2E0,1.9E1,7E0,2.545E3,1.7E1,1.5E1,8E0,8E0,4E0,1.2E1,1E0,1E0,1E0,1E0,1E0,1.2E1,7E0,5E0,2E0,2.208E3,3.37E2,4E0,1.3E1,8E0,7E0,3E0,5E0,1E0,7E0,8E0,4E0,1E1,2E0,4E0,3E0,1E0,1E0,5E0,2.203E3,7.7E1,2.6E2,2E0,2E0,1E0,1.2E1,4E0,4E0,1E0,6E0,1E0,4E0,3E0,4E0,5E0,3E0,4E0,6E0,1E0,3E0,1E0,2E0],"tree_param":{"num_deleted":"0","num_feature":"6","num_nodes":"73","size_leaf_vector":"1"}},{"base_weights":[9.571779E0,-1.6168015E3,1.7281476E2,-1.9112252E3,3.2935833E3,3.4342366E3,-6.30273E0,-1.01485846E3,-4.1923076E3,1.3562904E4,-3.9185847E3,1.2633095E4,1.3467804E3,-4.110402E3,1.3727834E2,-5.9826465E3,-6.557583E2,2.8334548E3,-5.868127E3,3.5475996E3,6.718703E3,-1.0801525E4,3.7480735E3,1.0218605E4,7.5970474E3,1.9115856E3,-5.435176E3,-7.283197E3,-4.8351004E2,-5.385623E2,5.428794E2,9.551755E2,-1.192336E4,-4.634027E3,-9.924109E1,2.0957328E4,-2.3670063E3,-9.072215E3,-2.5653713E3,3.3815095E3,-2.9437043E3,6.318217E2,-4.3664834E3,6.0405293E3,-8.132625E2,1.3456299E4,-2.8332734E3,1.4279186E3,5.379789E3,-5.0722104E3,-1.4580901E4,2.5683865E4,-3.547804E3,9.7100824E2,-9.787984E2,2.6736646E2,3.450883E3,2.261447E3,-1.2662562E3,-3.9663909E3,-8.150473E2,-1.454841E3,-1.1340821E2,9.9221185E2,-4.765803E2,6.3442505E2,8.796373E3,-1.6196058E3,4.1924688E3,-1.1533995E3,-5.5557876E3,7.115251E3,-1.6850104E3,5.218606E2,2.068305E3,3.1054077E3,7.348671E3,-3.4826196E3,2.065983E3,9.604462E2,2.0895692E2,-3.995344E2,1.8333009E3,-2.4690762E2,-1.9894088E3,-1.4332229E3,-7.6922744E3,-1.5529524E3,1.1308849E4,6.3262805E2,-2.7985237E3,-2.978711E3,6.14688E2,4.8969155E3,-4.0906876E2,1.0470051E2,-7.6237593E3,2.4352356E3,-5.8318835E2],"categories":[],"categories_nodes":[],"categories_segments":[],"categories_sizes":[],"default_left":[0,0,0,0,0,0,0,0,0,0,0,0,0,0,0,0,0,0,0,0,0,0,0,0,0,0,0,0,0,0,0,0,0,0,0,0,0,0,0,0,0,0,0,0,0,0,0,0,0,0,0,0,0,0,0,0,0,0,0,0,0,0,0,0,0,0,0,0,0,0,0,0,0,0,0,0,0,0,0,0,0,0,0,0,0,0,0,0,0,0,0,0,0,0,0,0,0,0,0],"id":13,"left_children":[1,3,5,7,9,11,13,15,17,19,21,23,25,27,29,31,33,35,37,39,-1,41,43,45,-1,47,-1,49,51,53,55,57,59,61,63,65,67,69,71,-1,-1,-1,-1,73,-1,75,77,79,81,83,85,87,89,91,93,95,97,-1,-1,-1,-1,-1,-1,-1,-1,-1,-1,-1,-1,-1,-1,-1,-1,-1,-1,-1,-1,-1,-1,-1,-1,-1,-1,-1,-1,-1,-1,-1,-1,-1,-1,-1,-1,-1,-1,-1,-1,-1,-1],"loss_changes":[7.0144915E8,3.5471648E8,1.4026323E9,4.619339E8,1.0900443E9,2.3832627E9,1.3423342E9,2.9042586E8,7.701572E8,4.513266E8,5.154073E8,4.4596813E8,1.1669514E9,8.825471E8,6.0363424E8,4.647607E8,3.4270624E8,1.2748887E9,5.2700698E8,5.2337603E8,0E0,2.7289184E8,9.040939E7,9.255432E8,0E0,1.6174112E8,0E0,5.8758246E8,3.0579487E9,5.4988314E8,1.1015186E9,2.3625968E8,3.577741E7,1.5588352E7,7.003474E8,4.1078605E8,6.204236E8,1.2128109E9,2.2985528E9,0E0,0E0,0E0,0E0,2.696128E6,0E0,3.2913434E8,5.0642698E8,1.1451632E8,6.7029664E7,2.1317133E8,8.533435E8,1.67795E9,1.1314163E9,2.2175421E9,4.282821E9,2.6461204E9,3.0116536E9,0E0,0E0,0E0,0E0,0E0,0E0,0E0,0E0,0E0,0E0,0E0,0E0,0E0,0E0,0E0,0E0,0E0,0E0,0E0,0E0,0E0,0E0,0E0,0E0,0E0,0E0,0E0,0E0,0E0,0E0,0E0,0E0,0E0,0E0,0E0,0E0,0E0,0E0,0E0,0E0,0E0,0E0],"parents":[2147483647,0,0,1,1,2,2,3,3,4,4,5,5,6,6,7,7,8,8,9,9,10,10,11,11,12,12,13,13,14,14,15,15,16,16,17,17,18,18,19,19,21,21,22,22,23,23,25,25,27,27,28,28,29,29,30,30,31,31,32,32,33,33,34,34,35,35,36,36,37,37,38,38,43,43,45,45,46,46,47,47,48,48,49,49,50,50,51,51,52,52,53,53,54,54,55,55,56,56],"right_children":[2,4,6,8,10,12,14,16,18,20,22,24,26,28,30,32,34,36,38,40,-1,42,44,46,-1,48,-1,50,52,54,56,58,60,62,64,66,68,70,72,-1,-1,-1,-1,74,-1,76,78,80,82,84,86,88,90,92,94,96,98,-1,-1,-1,-1,-1,-1,-1,-1,-1,-1,-1,-1,-1,-1,-1,-1,-1,-1,-1,-1,-1,-1,-1,-1,-1,-1,-1,-1,-1,-1,-1,-1,-1,-1,-1,-1,-1,-1,-1,-1,-1,-1],"split_conditions":[1E0,5.5E1,2E0,5E0,4.9E1,2E0,1E0,2.021E3,1E0,1E0,7.2E1,3.1E1,3E0,9E0,2.023E3,1E0,1E0,1.1E1,1.4E1,2E0,6.718703E3,1E0,7.9E1,1.5E1,7.5970474E3,1E0,-5.435176E3,7E0,1E1,2E0,7E0,1E0,2E0,4E0,2E0,2.021E3,3.5E1,2.023E3,1.6E1,3.3815095E3,-2.9437043E3,6.318217E2,-4.3664834E3,1E0,-8.132625E2,2.023E3,2.1E1,2.023E3,2.022E3,2.022E3,3E0,2.022E3,2.022E3,2.021E3,2.021E3,6E0,1.1E1,2.261447E3,-1.2662562E3,-3.9663909E3,-8.150473E2,-1.454841E3,-1.1340821E2,9.9221185E2,-4.765803E2,6.3442505E2,8.796373E3,-1.6196058E3,4.1924688E3,-1.1533995E3,-5.5557876E3,7.115251E3,-1.6850104E3,5.218606E2,2.068305E3,3.1054077E3,7.348671E3,-3.4826196E3,2.065983E3,9.604462E2,2.0895692E2,-3.995344E2,1.8333009E3,-2.4690762E2,-1.9894088E3,-1.4332229E3,-7.6922744E3,-1.5529524E3,1.1308849E4,6.3262805E2,-2.7985237E3,-2.978711E3,6.14688E2,4.8969155E3,-4.0906876E2,1.0470051E2,-7.6237593E3,2.4352356E3,-5.8318835E2],"split_indices":[1,4,1,4,5,2,2,3,2,5,4,4,4,4,3,2,2,4,4,2,0,2,4,4,0,4,0,4,4,2,4,4,0,4,2,3,4,3,4,0,0,0,0,2,0,3,4,3,3,3,1,3,3,3,3,4,4,0,0,0,0,0,0,0,0,0,0,0,0,0,0,0,0,0,0,0,0,0,0,0,0,0,0,0,0,0,0,0,0,0,0,0,0,0,0,0,0,0,0],"split_type":[0,0,0,0,0,0,0,0,0,0,0,0,0,0,0,0,0,0,0,0,0,0,0,0,0,0,0,0,0,0,0,0,0,0,0,0,0,0,0,0,0,0,0,0,0,0,0,0,0,0,0,0,0,0,0,0,0,0,0,0,0,0,0,0,0,0,0,0,0,0,0,0,0,0,0,0,0,0,0,0,0,0,0,0,0,0,0,0,0,0,0,0,0,0,0,0,0,0,0],"sum_hessian":[2.64E3,2.4E2,2.4E3,2.27E2,1.3E1,1.24E2,2.276E3,1.64E2,6.3E1,5E0,8E0,2.2E1,1.02E2,7.6E1,2.2E3,1E1,1.54E2,1.2E1,5.1E1,3E0,2E0,4E0,4E0,2E1,2E0,1E2,2E0,4E1,3.6E1,8.25E2,1.375E3,5E0,5E0,1.8E1,1.36E2,2E0,1E1,2.5E1,2.6E1,2E0,1E0,1E0,3E0,3E0,1E0,1.6E1,4E0,8.9E1,1.1E1,3.2E1,8E0,3E0,3.3E1,1.86E2,6.39E2,1.257E3,1.18E2,2E0,3E0,4E0,1E0,1.7E1,1E0,4.1E1,9.5E1,1E0,1E0,9E0,1E0,1.7E1,8E0,2E0,2.4E1,1E0,2E0,1.4E1,2E0,2E0,2E0,2.5E1,6.4E1,1E0,1E1,9E0,2.3E1,5E0,3E0,1E0,2E0,1.7E1,1.6E1,1.6E1,1.7E2,1.3E1,6.26E2,1.254E3,3E0,6.3E1,5.5E1],"tree_param":{"num_deleted":"0","num_feature":"6","num_nodes":"99","size_leaf_vector":"1"}},{"base_weights":[1.3351778E1,-5.40037E2,3.4982288E2,-4.9494122E2,-1.1633874E4,2.4564009E2,3.1926519E3,-5.5735425E2,3.9226965E3,-6.9127325E2,-4.1927007E3,3.61202E2,-7.62325E3,2.3250316E4,1.2763374E3,-6.232098E2,4.0453071E3,6.538995E3,-2.3550188E3,2.5982126E3,1.2030544E2,-5.976775E3,-4.7822207E3,-4.5743076E3,3.6686742E4,7.368773E3,-6.3980554E2,-3.885042E2,-2.942166E3,-6.9105576E3,7.661503E3,1.2365147E4,-1.2271946E3,5.1336333E3,-7.0700405E3,-4.8547077E1,3.5132017E3,8.015131E3,-7.512055E3,2.1862262E4,9.9856255E1,-2.0519496E2,3.2683732E4,4.3220566E3,-3.5564717E3,-1.6976932E2,2.1856353E3,-4.287987E3,-2.4373715E2,-4.654257E3,3.3861487E2,6.1050586E3,1.3072843E3,-4.2909143E2,5.160605E3,1.0846665E3,1.0088265E4,-4.71909E3,5.0428623E3,4.2498066E1,-4.0051477E3,5.7436904E3,2.2721465E2,4.673842E3,9.0157814E1,-2.7852692E2,-4.440777E3,1.0378951E3,-5.5280474E3,1.5496841E3,1.3157996E4,4.909727E3,8.515114E1,-7.334093E2,-2.3878018E3],"categories":[],"categories_nodes":[],"categories_segments":[],"categories_sizes":[],"default_left":[0,0,0,0,0,0,0,0,0,0,0,0,0,0,0,0,0,0,0,0,0,0,0,0,0,0,0,0,0,0,0,0,0,0,0,0,0,0,0,0,0,0,0,0,0,0,0,0,0,0,0,0,0,0,0,0,0,0,0,0,0,0,0,0,0,0,0,0,0,0,0,0,0,0,0],"id":14,"left_children":[1,3,5,7,9,11,13,15,17,-1,-1,19,21,23,25,27,29,31,-1,33,35,-1,37,-1,39,41,43,45,47,49,51,53,-1,55,57,59,61,63,65,-1,-1,67,69,71,73,-1,-1,-1,-1,-1,-1,-1,-1,-1,-1,-1,-1,-1,-1,-1,-1,-1,-1,-1,-1,-1,-1,-1,-1,-1,-1,-1,-1,-1,-1],"loss_changes":[4.9194134E8,4.9402675E8,4.8582938E8,2.7680154E8,5.518899E7,1.444973E9,2.199659E9,3.0047907E8,4.8254624E8,0E0,0E0,8.4250854E8,7.0840934E8,3.145766E9,6.351094E8,5.268008E8,6.07605E8,7.937407E8,0E0,3.762284E9,8.096769E8,0E0,7.589032E8,0E0,5.2379633E9,2.4992573E9,6.231993E8,1.2047977E9,2.1399255E9,2.9417894E8,3.7246406E8,5.584184E8,0E0,5.1123937E9,6.882126E9,3.4099725E9,2.8718702E9,2.2874158E8,8.022262E8,0E0,0E0,7.9832435E8,6.960845E8,7.735164E8,1.1270666E8,0E0,0E0,0E0,0E0,0E0,0E0,0E0,0E0,0E0,0E0,0E0,0E0,0E0,0E0,0E0,0E0,0E0,0E0,0E0,0E0,0E0,0E0,0E0,0E0,0E0,0E0,0E0,0E0,0E0,0E0],"parents":[2147483647,0,0,1,1,2,2,3,3,4,4,5,5,6,6,7,7,8,8,11,11,12,12,13,13,14,14,15,15,16,16,17,17,19,19,20,20,22,22,24,24,25,25,26,26,27,27,28,28,29,29,30,30,31,31,33,33,34,34,35,35,36,36,37,37,38,38,41,41,42,42,43,43,44,44],"right_children":[2,4,6,8,10,12,14,16,18,-1,-1,20,22,24,26,28,30,32,-1,34,36,-1,38,-1,40,42,44,46,48,50,52,54,-1,56,58,60,62,64,66,-1,-1,68,70,72,74,-1,-1,-1,-1,-1,-1,-1,-1,-1,-1,-1,-1,-1,-1,-1,-1,-1,-1,-1,-1,-1,-1,-1,-1,-1,-1,-1,-1,-1,-1],"split_conditions":[3E0,7.9E1,1.8E1,2E0,1E0,1.1E1,2.1E1,6.5E1,5.7E1,-6.9127325E2,-4.1927007E3,2E0,1.2E1,1E0,2.1E1,1.8E1,1E0,2.023E3,-2.3550188E3,2E0,7E0,-5.976775E3,1E0,-4.5743076E3,2.023E3,2E1,2.023E3,1.4E1,2.3E1,2.021E3,2.021E3,2.021E3,-1.2271946E3,1E0,9E0,3E0,8E0,1E0,1.3E1,2.1862262E4,9.9856255E1,8E0,1E0,3.3E1,4E1,-1.6976932E2,2.1856353E3,-4.287987E3,-2.4373715E2,-4.654257E3,3.3861487E2,6.1050586E3,1.3072843E3,-4.2909143E2,5.160605E3,1.0846665E3,1.0088265E4,-4.71909E3,5.0428623E3,4.2498066E1,-4.0051477E3,5.7436904E3,2.2721465E2,4.673842E3,9.0157814E1,-2.7852692E2,-4.440777E3,1.0378951E3,-5.5280474E3,1.5496841E3,1.3157996E4,4.909727E3,8.515114E1,-7.334093E2,-2.3878018E3],"split_indices":[1,4,4,0,1,4,4,4,4,0,0,2,4,2,5,4,2,3,0,4,4,0,5,0,3,5,3,4,4,3,3,3,0,4,4,4,4,2,4,0,0,5,2,4,4,0,0,0,0,0,0,0,0,0,0,0,0,0,0,0,0,0,0,0,0,0,0,0,0,0,0,0,0,0,0],"split_type":[0,0,0,0,0,0,0,0,0,0,0,0,0,0,0,0,0,0,0,0,0,0,0,0,0,0,0,0,0,0,0,0,0,0,0,0,0,0,0,0,0,0,0,0,0,0,0,0,0,0,0,0,0,0,0,0,0,0,0,0,0,0,0,0,0,0,0,0,0,0,0,0,0,0,0],"sum_hessian":[2.64E3,9.98E2,1.642E3,9.95E2,3E0,1.585E3,5.7E1,9.82E2,1.3E1,1E0,2E0,1.563E3,2.2E1,4E0,5.3E1,9.69E2,1.3E1,1.1E1,2E0,1.51E2,1.412E3,3E0,1.9E1,1E0,3E0,1.2E1,4.1E1,8.81E2,8.8E1,3E0,1E1,7E0,4E0,1.2E2,3.1E1,1.346E3,6.6E1,3E0,1.6E1,1E0,2E0,1E1,2E0,1.5E1,2.6E1,8.62E2,1.9E1,1.3E1,7.5E1,1E0,2E0,1E0,9E0,2E0,5E0,1.15E2,5E0,2.3E1,8E0,1.328E3,1.8E1,9E0,5.7E1,1E0,2E0,9E0,7E0,9E0,1E0,1E0,1E0,3E0,1.2E1,2.2E1,4E0],"tree_param":{"num_deleted":"0","num_feature":"6","num_nodes":"75","size_leaf_vector":"1"}},{"base_weights":[2.217924E1,6.7306114E1,-3.779384E3,-2.1998856E1,3.3576719E3,-6.8314116E3,-4.9114502E2,3.4537872E1,-7.534275E3,9.979046E3,4.5141644E2,-3.926894E3,-5.432607E3,5.0868022E3,-2.774361E3,-8.407149E3,5.79826E1,-9.493108E3,2.1846284E3,2.025899E4,6.36853E3,-1.1154514E4,2.6513218E3,1.2088555E3,-5.437449E3,4.443076E3,-6.3322485E3,1.0839694E3,-6.813353E3,-3.4899663E3,-2.2798047E2,2.967686E1,5.120569E3,-5.5366865E3,-1.1955138E4,-3.793905E3,3.0180344E3,-5.8140625E1,1.01469375E4,-1.526737E3,8.235491E3,-5.9856807E3,-4.4480786E3,-3.4047673E3,6.1419185E3,-1.8639634E3,1.7261844E3,-3.5289978E3,-3.6782942E3,-3.9561184E3,1.1066063E3,2.4232024E3,-1.0427145E3,-3.2576328E3,-2.7849587E3,5.0733986E1,-1.533252E2,3.9773872E1,-7.2658295E2,-9.546059E2,1.8012001E3,-2.3420405E3,1.5531177E3,-1.0322051E2,-4.009054E3,-1.643672E3,-6.3585354E1,1.225234E3,-1.2513973E3,3.217429E3,1.6153014E3,-2.8592358E3,1.2292114E3,2.308269E3,-1.9673815E3,2.0694979E1,3.5328438E3,5.736094E2,-1.3038014E3,1.1073859E3,-5.875823E2,1.3000781E2,-1.389725E3],"categories":[],"categories_nodes":[],"categories_segments":[],"categories_sizes":[],"default_left":[0,0,0,0,0,0,0,0,0,0,0,0,0,0,0,0,0,0,0,0,0,0,0,0,0,0,0,0,0,0,0,0,0,0,0,0,0,0,0,0,0,0,0,0,0,0,0,0,0,0,0,0,0,0,0,0,0,0,0,0,0,0,0,0,0,0,0,0,0,0,0,0,0,0,0,0,0,0,0,0,0,0,0],"id":15,"left_children":[1,3,5,7,9,11,13,15,17,19,21,23,-1,25,27,29,31,33,35,37,39,41,43,45,47,-1,49,51,53,-1,55,57,59,61,63,65,-1,67,-1,-1,69,71,-1,73,75,-1,-1,77,-1,-1,-1,79,-1,81,-1,-1,-1,-1,-1,-1,-1,-1,-1,-1,-1,-1,-1,-1,-1,-1,-1,-1,-1,-1,-1,-1,-1,-1,-1,-1,-1,-1,-1],"loss_changes":[4.53325E8,7.6730586E8,3.077545E8,1.0803219E9,1.3232901E9,4.5296986E8,2.1788318E8,5.0021802E8,3.8245542E8,6.5041395E8,1.2806397E9,1.1518274E8,0E0,6.489451E8,1.9439062E8,1.8205389E8,3.6082134E8,8.966131E7,2.2650253E8,1.3798883E9,4.0555853E8,6.3107584E7,9.087652E8,1.7068642E8,9.997715E7,0E0,2.5471782E8,5.116772E7,2.2451168E7,0E0,4.2368703E5,6.3253056E8,1.2179162E8,2.3498771E8,1.4257677E8,1.6945532E7,0E0,6.814971E7,0E0,0E0,4.87136E7,2.177786E8,0E0,6.104108E8,9.230275E8,0E0,0E0,5.276328E7,0E0,0E0,0E0,4.0568788E7,0E0,2.2304764E7,0E0,0E0,0E0,0E0,0E0,0E0,0E0,0E0,0E0,0E0,0E0,0E0,0E0,0E0,0E0,0E0,0E0,0E0,0E0,0E0,0E0,0E0,0E0,0E0,0E0,0E0,0E0,0E0,0E0],"parents":[2147483647,0,0,1,1,2,2,3,3,4,4,5,5,6,6,7,7,8,8,9,9,10,10,11,11,13,13,14,14,15,15,16,16,17,17,18,18,19,19,20,20,21,21,22,22,23,23,24,24,26,26,27,27,28,28,30,30,31,31,32,32,33,33,34,34,35,35,37,37,40,40,41,41,43,43,44,44,47,47,51,51,53,53],"right_children":[2,4,6,8,10,12,14,16,18,20,22,24,-1,26,28,30,32,34,36,38,40,42,44,46,48,-1,50,52,54,-1,56,58,60,62,64,66,-1,68,-1,-1,70,72,-1,74,76,-1,-1,78,-1,-1,-1,80,-1,82,-1,-1,-1,-1,-1,-1,-1,-1,-1,-1,-1,-1,-1,-1,-1,-1,-1,-1,-1,-1,-1,-1,-1,-1,-1,-1,-1,-1,-1],"split_conditions":[5.4E1,3.8E1,5.9E1,3E1,4.4E1,5.7E1,2.021E3,1E0,4.7E1,2.1E1,4.6E1,1.5E1,-5.432607E3,6.9E1,1E0,6E0,2.7E1,3.3E1,2.022E3,4E0,1E0,4.5E1,2.022E3,1E0,3E0,4.443076E3,3E0,2E0,6.3E1,-3.4899663E3,1E0,1.1E1,2.021E3,3.5E1,2.022E3,1E0,3.0180344E3,1E0,1.01469375E4,-1.526737E3,2E0,3E0,-4.4480786E3,2E0,5.5E1,-1.8639634E3,1.7261844E3,1E0,-3.6782942E3,-3.9561184E3,1.1066063E3,7.9E1,-1.0427145E3,3E0,-2.7849587E3,5.0733986E1,-1.533252E2,3.9773872E1,-7.2658295E2,-9.546059E2,1.8012001E3,-2.3420405E3,1.5531177E3,-1.0322051E2,-4.009054E3,-1.643672E3,-6.3585354E1,1.225234E3,-1.2513973E3,3.217429E3,1.6153014E3,-2.8592358E3,1.2292114E3,2.308269E3,-1.9673815E3,2.0694979E1,3.5328438E3,5.736094E2,-1.3038014E3,1.1073859E3,-5.875823E2,1.3000781E2,-1.389725E3],"split_indices":[5,4,5,5,4,5,3,0,5,5,4,4,0,4,1,4,5,5,3,5,2,4,3,2,1,0,1,0,5,0,1,4,3,4,3,1,0,1,0,0,2,1,0,1,4,0,0,2,0,0,0,4,0,1,0,0,0,0,0,0,0,0,0,0,0,0,0,0,0,0,0,0,0,0,0,0,0,0,0,0,0,0,0],"split_type":[0,0,0,0,0,0,0,0,0,0,0,0,0,0,0,0,0,0,0,0,0,0,0,0,0,0,0,0,0,0,0,0,0,0,0,0,0,0,0,0,0,0,0,0,0,0,0,0,0,0,0,0,0,0,0,0,0,0,0,0,0,0,0,0,0,0,0,0,0,0,0,0,0,0,0,0,0,0,0,0,0,0,0],"sum_hessian":[2.64E3,2.61E3,3E1,2.542E3,6.8E1,1.5E1,1.5E1,2.524E3,1.8E1,2E1,4.8E1,1.3E1,2E0,4E0,1.1E1,6E0,2.518E3,1.5E1,3E0,4E0,1.6E1,7E0,4.1E1,3E0,1E1,2E0,2E0,6E0,5E0,4E0,2E0,2.505E3,1.3E1,7E0,8E0,2E0,1E0,2E0,2E0,2E0,1.4E1,4E0,3E0,1.5E1,2.6E1,1E0,2E0,9E0,1E0,1E0,1E0,5E0,1E0,3E0,2E0,1E0,1E0,2.405E3,1E2,1E0,1.2E1,6E0,1E0,1E0,7E0,1E0,1E0,1E0,1E0,6E0,8E0,3E0,1E0,3E0,1.2E1,1.3E1,1.3E1,1E0,8E0,4E0,1E0,1E0,2E0],"tree_param":{"num_deleted":"0","num_feature":"6","num_nodes":"83","size_leaf_vector":"1"}},{"base_weights":[1.2213627E1,-4.6026324E2,3.3178732E2,-2.6879865E2,-1.86124E3,1.9405013E2,3.0477312E3,-5.463319E2,3.131838E3,-8.927393E3,-9.151563E2,4.1250864E2,-2.903842E3,1.5559792E4,3.3100943E2,-5.02888E2,-3.8758503E3,1.2461493E4,-5.2981655E3,7.4964155E3,-1.3134785E4,-5.199467E3,1.6586867E2,4.5727656E3,1.641518E2,-1.6316456E4,9.164317E2,-9.318071E3,2.0105154E3,-2.6523748E3,-4.5399496E2,6.7481274E3,-2.3066382E2,-7.2678286E3,6.41801E3,-1.7589307E4,2.3988447E3,-5.188876E3,-8.783457E2,-2.9812993E3,2.4357517E3,7.746897E3,-8.409557E3,-5.800896E1,1.3962039E4,-5.5575005E3,-7.971056E3,-4.9550684E3,3.166547E3,1.2543633E3,-1.1086121E4,6.734394E3,9.72435E2,-9.52148E1,-6.0642804E2,1.1182167E3,-2.234595E3,-3.0603264E3,-1.3708743E3,-1.6178997E3,4.1015293E3,-6.1260137E3,-9.701969E2,-3.4293418E3,3.2457659E3,2.144941E3,-1.3548241E3,-1.4205203E3,1.321931E3,-9.170799E1,3.0870862E3,1.01665314E3,1.2824935E4,1.9906803E3,-6.254591E3,6.575843E1,-8.545044E2,2.7337854E1,7.307289E3,-3.3924338E3,6.233392E2,4.6098306E2,-3.1478557E3,1.5303716E2,1.1590771E3,-4.1932847E3,-2.048657E3,-5.785699E2,1.8608345E3],"categories":[],"categories_nodes":[],"categories_segments":[],"categories_sizes":[],"default_left":[0,0,0,0,0,0,0,0,0,0,0,0,0,0,0,0,0,0,0,0,0,0,0,0,0,0,0,0,0,0,0,0,0,0,0,0,0,0,0,0,0,0,0,0,0,0,0,0,0,0,0,0,0,0,0,0,0,0,0,0,0,0,0,0,0,0,0,0,0,0,0,0,0,0,0,0,0,0,0,0,0,0,0,0,0,0,0,0,0],"id":16,"left_children":[1,3,5,7,9,11,13,15,17,19,21,23,25,-1,27,29,-1,31,33,-1,35,37,39,41,43,45,47,49,51,-1,53,-1,55,57,59,61,63,-1,65,67,69,71,73,75,77,79,-1,81,83,-1,85,-1,87,-1,-1,-1,-1,-1,-1,-1,-1,-1,-1,-1,-1,-1,-1,-1,-1,-1,-1,-1,-1,-1,-1,-1,-1,-1,-1,-1,-1,-1,-1,-1,-1,-1,-1,-1,-1],"loss_changes":[3.9892045E8,2.8544083E8,5.889689E8,8.8792954E8,8.47532E8,1.01701594E9,1.0062377E10,4.606238E8,5.6501043E9,2.4686464E9,5.2884733E8,1.4488686E9,5.087699E9,0E0,1.2017494E9,3.4945146E8,0E0,4.3344445E9,9.2356794E8,0E0,1.01092224E9,1.1870564E9,6.6448237E8,3.3205484E9,4.0623972E9,2.2793626E9,1.0461916E9,3.0889466E8,1.3147619E9,0E0,1.8415304E8,0E0,4.8487072E8,2.1456896E8,5.877767E8,3.809595E8,5.8949056E8,0E0,5.5796595E8,5.261635E8,1.1659156E9,9.617971E9,3.1327094E9,1.0100318E9,3.0259034E9,5.503875E8,0E0,8.070126E8,1.0357267E8,0E0,2.7647488E7,0E0,9.375302E8,0E0,0E0,0E0,0E0,0E0,0E0,0E0,0E0,0E0,0E0,0E0,0E0,0E0,0E0,0E0,0E0,0E0,0E0,0E0,0E0,0E0,0E0,0E0,0E0,0E0,0E0,0E0,0E0,0E0,0E0,0E0,0E0,0E0,0E0,0E0,0E0],"parents":[2147483647,0,0,1,1,2,2,3,3,4,4,5,5,6,6,7,7,8,8,9,9,10,10,11,11,12,12,14,14,15,15,17,17,18,18,20,20,21,21,22,22,23,23,24,24,25,25,26,26,27,27,28,28,30,30,32,32,33,33,34,34,35,35,36,36,38,38,39,39,40,40,41,41,42,42,43,43,44,44,45,45,47,47,48,48,50,50,52,52],"right_children":[2,4,6,8,10,12,14,16,18,20,22,24,26,-1,28,30,-1,32,34,-1,36,38,40,42,44,46,48,50,52,-1,54,-1,56,58,60,62,64,-1,66,68,70,72,74,76,78,80,-1,82,84,-1,86,-1,88,-1,-1,-1,-1,-1,-1,-1,-1,-1,-1,-1,-1,-1,-1,-1,-1,-1,-1,-1,-1,-1,-1,-1,-1,-1,-1,-1,-1,-1,-1,-1,-1,-1,-1,-1,-1],"split_conditions":[2.023E3,1.1E1,1.1E1,9E0,1.3E1,3E0,1.2E1,8E0,2E0,1E0,1E0,2E0,2E0,1.5559792E4,1.4E1,1E0,-3.8758503E3,1.8E1,6.1E1,7.4964155E3,3E0,2.7E1,2.022E3,2E0,2E0,8E0,7E0,1E0,1.6E1,-2.6523748E3,3E0,6.7481274E3,6.3E1,3E0,2.022E3,1.2E1,2.022E3,-5.188876E3,2.9E1,6.5E1,3E0,1E0,2E0,1E0,3E0,4E0,-7.971056E3,3E0,8E0,1.2543633E3,1.2E1,6.734394E3,3.7E1,-9.52148E1,-6.0642804E2,1.1182167E3,-2.234595E3,-3.0603264E3,-1.3708743E3,-1.6178997E3,4.1015293E3,-6.1260137E3,-9.701969E2,-3.4293418E3,3.2457659E3,2.144941E3,-1.3548241E3,-1.4205203E3,1.321931E3,-9.170799E1,3.0870862E3,1.01665314E3,1.2824935E4,1.9906803E3,-6.254591E3,6.575843E1,-8.545044E2,2.7337854E1,7.307289E3,-3.3924338E3,6.233392E2,4.6098306E2,-3.1478557E3,1.5303716E2,1.1590771E3,-4.1932847E3,-2.048657E3,-5.785699E2,1.8608345E3],"split_indices":[3,5,5,4,5,5,5,4,2,2,2,2,2,0,4,0,0,4,4,0,1,5,3,4,4,5,4,4,4,0,5,0,4,1,3,4,3,0,5,4,1,4,1,4,1,4,0,1,4,0,4,0,4,0,0,0,0,0,0,0,0,0,0,0,0,0,0,0,0,0,0,0,0,0,0,0,0,0,0,0,0,0,0,0,0,0,0,0,0],"split_type":[0,0,0,0,0,0,0,0,0,0,0,0,0,0,0,0,0,0,0,0,0,0,0,0,0,0,0,0,0,0,0,0,0,0,0,0,0,0,0,0,0,0,0,0,0,0,0,0,0,0,0,0,0,0,0,0,0,0,0,0,0,0,0,0,0,0,0,0,0,0,0,0,0,0,0,0,0,0,0,0,0,0,0,0,0,0,0,0,0],"sum_hessian":[2.64E3,1.065E3,1.575E3,9.38E2,1.27E2,1.5E3,7.5E1,8.68E2,7E1,1.4E1,1.13E2,1.402E3,9.8E1,3E0,7.2E1,8.66E2,2E0,3.3E1,3.7E1,1E0,1.3E1,2.2E1,9.1E1,7.8E1,1.324E3,2.1E1,7.7E1,1E1,6.2E1,4E0,8.62E2,1.8E1,1.5E1,3.2E1,5E0,1E1,3E0,5E0,1.7E1,3.8E1,5.3E1,6.3E1,1.5E1,1.304E3,2E1,1.1E1,1E1,2.1E1,5.6E1,1E0,9E0,2E0,6E1,7.94E2,6.8E1,1E1,5E0,1.4E1,1.8E1,2E0,3E0,8E0,2E0,1E0,2E0,5E0,1.2E1,3.1E1,7E0,4E1,1.3E1,5.7E1,6E0,7E0,8E0,1.187E3,1.17E2,9E0,1.1E1,6E0,5E0,1E1,1.1E1,1.2E1,4.4E1,4E0,5E0,3.9E1,2.1E1],"tree_param":{"num_deleted":"0","num_feature":"6","num_nodes":"89","size_leaf_vector":"1"}},{"base_weights":[1.5274049E1,-9.200477E2,1.0915047E2,-6.0277045E2,-2.4992969E3,2.503893E3,-2.2361155E1,-7.2682654E2,2.360568E3,-2.8694204E3,-1.4485612E3,8.511656E3,1.1380438E3,5.6733627E0,-5.797988E3,-6.4550525E2,-2.5364656E3,8.665787E3,-2.630647E3,6.549447E3,5.822972E3,1.5600248E3,-4.0343984E3,-1.47262945E1,9.237424E3,-8.711129E3,-5.599922E2,-9.517922E2,1.5243235E3,-2.8818013E3,5.3875156E3,-5.0064805E3,2.0658093E2,3.9840818E3,1.3961799E4,1.1207603E3,4.7245063E3,-5.4039935E2,1.8706918E2,-8.408157E2,5.4595273E3,-2.988499E3,-1.8118887E2,-7.819161E2,1.1438379E3,-5.4569556E2,1.6174284E1,2.3517246E3,-2.1675857E3,-5.223984E2,-3.9442834E3,2.9099531E3,-3.2188785E2,1.8021923E3,-2.238022E3,1.5356056E3,5.445294E3,7.4835486E2,1.6620462E2,-3.0582422E2,1.6018065E3,-1.0868253E3,-1.0570915E2,6.235615E1,-3.3587979E3],"categories":[],"categories_nodes":[],"categories_segments":[],"categories_sizes":[],"default_left":[0,0,0,0,0,0,0,0,0,0,0,0,0,0,0,0,0,0,0,0,0,0,0,0,0,0,0,0,0,0,0,0,0,0,0,0,0,0,0,0,0,0,0,0,0,0,0,0,0,0,0,0,0,0,0,0,0,0,0,0,0,0,0,0,0],"id":17,"left_children":[1,3,5,7,9,11,13,15,-1,-1,17,19,21,23,25,27,-1,29,31,33,-1,35,-1,37,39,41,43,45,47,-1,-1,49,51,53,55,57,59,61,63,-1,-1,-1,-1,-1,-1,-1,-1,-1,-1,-1,-1,-1,-1,-1,-1,-1,-1,-1,-1,-1,-1,-1,-1,-1,-1],"loss_changes":[2.3199251E8,1.1924894E8,7.5621843E8,2.1800498E8,2.831012E8,1.0160257E9,3.6871766E8,1.2023353E8,0E0,0E0,4.532136E8,3.647227E8,6.549472E8,4.2706774E8,1.6297107E8,1.3370428E8,0E0,8.5167795E8,2.2348002E8,3.436981E8,0E0,1.3509946E8,0E0,2.4015659E8,5.9046374E8,6.495149E7,5.4679828E7,1.5272285E8,1.4379313E9,0E0,0E0,4.555824E8,2.0475974E8,4.384348E8,9.231782E7,6.868922E7,4.7822704E7,3.6270704E8,3.8939315E8,0E0,0E0,0E0,0E0,0E0,0E0,0E0,0E0,0E0,0E0,0E0,0E0,0E0,0E0,0E0,0E0,0E0,0E0,0E0,0E0,0E0,0E0,0E0,0E0,0E0,0E0],"parents":[2147483647,0,0,1,1,2,2,3,3,4,4,5,5,6,6,7,7,10,10,11,11,12,12,13,13,14,14,15,15,17,17,18,18,19,19,21,21,23,23,24,24,25,25,26,26,27,27,28,28,31,31,32,32,33,33,34,34,35,35,36,36,37,37,38,38],"right_children":[2,4,6,8,10,12,14,16,-1,-1,18,20,22,24,26,28,-1,30,32,34,-1,36,-1,38,40,42,44,46,48,-1,-1,50,52,54,56,58,60,62,64,-1,-1,-1,-1,-1,-1,-1,-1,-1,-1,-1,-1,-1,-1,-1,-1,-1,-1,-1,-1,-1,-1,-1,-1,-1,-1],"split_conditions":[1E0,1.2E1,2E0,6.1E1,1.5E1,2E0,7E1,6E1,2.360568E3,-2.8694204E3,1.6E1,3.1E1,3E0,6.6E1,3E0,8E0,-2.5364656E3,2.023E3,4.7E1,2.023E3,5.822972E3,1E0,-4.0343984E3,3E0,1E0,2.022E3,7.8E1,2.023E3,2.023E3,-2.8818013E3,5.3875156E3,2E0,4.9E1,1E1,1E0,2.023E3,2.022E3,1E0,6.3E1,-8.408157E2,5.4595273E3,-2.988499E3,-1.8118887E2,-7.819161E2,1.1438379E3,-5.4569556E2,1.6174284E1,2.3517246E3,-2.1675857E3,-5.223984E2,-3.9442834E3,2.9099531E3,-3.2188785E2,1.8021923E3,-2.238022E3,1.5356056E3,5.445294E3,7.4835486E2,1.6620462E2,-3.0582422E2,1.6018065E3,-1.0868253E3,-1.0570915E2,6.235615E1,-3.3587979E3],"split_indices":[1,5,1,4,5,2,4,4,0,0,5,4,4,4,1,4,0,3,5,3,0,4,0,1,2,3,4,3,3,0,0,2,5,4,2,3,3,2,4,0,0,0,0,0,0,0,0,0,0,0,0,0,0,0,0,0,0,0,0,0,0,0,0,0,0],"split_type":[0,0,0,0,0,0,0,0,0,0,0,0,0,0,0,0,0,0,0,0,0,0,0,0,0,0,0,0,0,0,0,0,0,0,0,0,0,0,0,0,0,0,0,0,0,0,0,0,0,0,0,0,0,0,0,0,0,0,0,0,0,0,0,0,0],"sum_hessian":[2.64E3,2.4E2,2.4E3,2.01E2,3.9E1,1.24E2,2.276E3,1.99E2,2E0,4E0,3.5E1,2.2E1,1.02E2,2.266E3,1E1,1.98E2,1E0,3E0,3.2E1,2E1,2E0,1E2,2E0,2.262E3,4E0,6E0,4E0,1.74E2,2.4E1,1E0,2E0,1.7E1,1.5E1,1.6E1,4E0,8.9E1,1.1E1,6.27E2,1.635E3,2E0,2E0,5E0,1E0,3E0,1E0,9.3E1,8.1E1,1.4E1,1E1,1.3E1,4E0,1E0,1.4E1,1.4E1,2E0,2E0,2E0,2.5E1,6.4E1,1E0,1E1,3.5E1,5.92E2,1.633E3,2E0],"tree_param":{"num_deleted":"0","num_feature":"6","num_nodes":"65","size_leaf_vector":"1"}},{"base_weights":[1.2621642E1,-2.8857968E2,2.1634497E2,2.3758334E2,-5.417602E2,1.068904E2,2.375226E3,-4.183155E3,9.101541E2,1.0099232E4,-7.8248944E2,2.5820425E2,-2.0385665E3,1.2082621E4,2.659668E2,-9.894838E3,-1.5797119E2,7.37973E2,5.347463E3,3.2662842E4,-6.705217E3,-1.0248511E3,3.2723948E3,3.2554192E3,7.930752E1,-1.1404751E4,6.293135E2,-6.484425E3,1.4403849E3,1.4266892E3,-1.8258375E4,-3.37704E3,3.816111E3,1.3095615E3,-1.433075E3,1.3077093E4,1.0688345E3,-7.78464E3,4.514385E2,-6.664598E2,-6.0760547E3,3.560805E4,-1.3095684E3,5.577603E3,-6.2367803E3,-8.536074E1,1.0308486E4,-3.928621E3,-5.5571206E3,-3.5848867E3,2.2448062E3,1.0568555E3,-7.8374375E3,4.3100127E3,7.810512E2,-1.132644E3,3.9268562E3,-8.809623E3,-1.2324839E3,-1.4646084E3,1.431575E3,1.5895706E3,-8.674805E2,9.7476776E1,4.2272266E3,-1.5910604E3,3.2542032E2,-6.6966156E2,-2.459901E3,-1.7630176E2,-5.0259824E3,-4.26474E3,-1.4720056E3,4.2432715E3,1.8219496E4,-1.5367516E3,2.4310129E2,6.95646E2,9.5346455E3,1.424071E3,-4.5921235E3,3.47505E1,-6.3307056E2,-8.055215E2,4.7054746E3,-2.5073171E3,5.680305E2,-3.3538876E2,-4.321967E3,3.6804005E1,8.248813E2,-3.015871E3,-1.4054929E3,-3.0780133E2,1.5464719E3],"categories":[],"categories_nodes":[],"categories_segments":[],"categories_sizes":[],"default_left":[0,0,0,0,0,0,0,0,0,0,0,0,0,0,0,0,0,0,0,0,0,0,0,0,0,0,0,0,0,0,0,0,0,0,0,0,0,0,0,0,0,0,0,0,0,0,0,0,0,0,0,0,0,0,0,0,0,0,0,0,0,0,0,0,0,0,0,0,0,0,0,0,0,0,0,0,0,0,0,0,0,0,0,0,0,0,0,0,0,0,0,0,0,0,0],"id":18,"left_children":[1,3,5,7,9,11,13,15,17,19,21,23,25,-1,27,29,31,33,-1,35,37,39,41,43,45,47,49,51,53,55,57,59,61,63,65,-1,-1,67,-1,69,71,73,75,77,79,81,83,85,-1,87,89,-1,91,-1,93,-1,-1,-1,-1,-1,-1,-1,-1,-1,-1,-1,-1,-1,-1,-1,-1,-1,-1,-1,-1,-1,-1,-1,-1,-1,-1,-1,-1,-1,-1,-1,-1,-1,-1,-1,-1,-1,-1,-1,-1],"loss_changes":[1.6211878E8,1.4213509E8,3.72154E8,1.0355281E9,1.8522532E9,4.8780704E8,6.064827E9,1.05600326E9,8.66389E8,6.285716E9,6.961915E8,7.520192E8,2.4809748E9,0E0,5.8806816E8,1.8251214E9,3.710868E8,3.741605E8,0E0,2.0706278E9,1.0033507E8,1.2016154E9,5.973062E9,1.7761541E9,2.2327378E9,1.098121E9,5.390721E8,1.7654986E8,5.2571277E8,5.954674E8,1.6081805E9,2.1952194E8,1.4459198E8,2.990618E9,6.1969286E8,0E0,0E0,2.43648E6,0E0,7.7976736E8,3.4905587E8,1.8372383E9,2.9514134E8,5.3915796E9,1.6666657E9,5.318963E8,1.509153E9,3.2526256E8,0E0,5.7121114E8,6.072365E7,0E0,2.2744064E7,0E0,4.874207E8,0E0,0E0,0E0,0E0,0E0,0E0,0E0,0E0,0E0,0E0,0E0,0E0,0E0,0E0,0E0,0E0,0E0,0E0,0E0,0E0,0E0,0E0,0E0,0E0,0E0,0E0,0E0,0E0,0E0,0E0,0E0,0E0,0E0,0E0,0E0,0E0,0E0,0E0,0E0,0E0],"parents":[2147483647,0,0,1,1,2,2,3,3,4,4,5,5,6,6,7,7,8,8,9,9,10,10,11,11,12,12,14,14,15,15,16,16,17,17,19,19,20,20,21,21,22,22,23,23,24,24,25,25,26,26,27,27,28,28,29,29,30,30,31,31,32,32,33,33,34,34,37,37,39,39,40,40,41,41,42,42,43,43,44,44,45,45,46,46,47,47,49,49,50,50,52,52,54,54],"right_children":[2,4,6,8,10,12,14,16,18,20,22,24,26,-1,28,30,32,34,-1,36,38,40,42,44,46,48,50,52,54,56,58,60,62,64,66,-1,-1,68,-1,70,72,74,76,78,80,82,84,86,-1,88,90,-1,92,-1,94,-1,-1,-1,-1,-1,-1,-1,-1,-1,-1,-1,-1,-1,-1,-1,-1,-1,-1,-1,-1,-1,-1,-1,-1,-1,-1,-1,-1,-1,-1,-1,-1,-1,-1,-1,-1,-1,-1,-1,-1],"split_conditions":[2.023E3,2E0,1.1E1,2.021E3,2.021E3,3E0,1.2E1,1E0,3E0,1E0,1.4E1,2E0,2E0,1.2082621E4,1.4E1,2E0,1E0,1.1E1,5.347463E3,3E0,2E0,8E0,2.1E1,2E0,2E0,8E0,7E0,1E0,1.6E1,1E0,3E0,6.2E1,3E0,1E1,2E1,1.3077093E4,1.0688345E3,1E0,4.514385E2,2E0,2.022E3,1.8E1,5.5E1,1E0,2E0,1E0,1E0,4E0,-5.5571206E3,6E0,3E0,1.0568555E3,1.2E1,4.3100127E3,3.9E1,-1.132644E3,3.9268562E3,-8.809623E3,-1.2324839E3,-1.4646084E3,1.431575E3,1.5895706E3,-8.674805E2,9.7476776E1,4.2272266E3,-1.5910604E3,3.2542032E2,-6.6966156E2,-2.459901E3,-1.7630176E2,-5.0259824E3,-4.26474E3,-1.4720056E3,4.2432715E3,1.8219496E4,-1.5367516E3,2.4310129E2,6.95646E2,9.5346455E3,1.424071E3,-4.5921235E3,3.47505E1,-6.3307056E2,-8.055215E2,4.7054746E3,-2.5073171E3,5.680305E2,-3.3538876E2,-4.321967E3,3.6804005E1,8.248813E2,-3.015871E3,-1.4054929E3,-3.0780133E2,1.5464719E3],"split_indices":[3,2,5,3,3,5,5,5,0,4,4,2,2,0,4,1,2,5,0,1,0,4,4,4,4,5,4,4,4,1,1,5,1,5,5,0,0,1,0,0,3,4,4,4,1,4,1,4,0,4,1,0,4,0,4,0,0,0,0,0,0,0,0,0,0,0,0,0,0,0,0,0,0,0,0,0,0,0,0,0,0,0,0,0,0,0,0,0,0,0,0,0,0,0,0],"split_type":[0,0,0,0,0,0,0,0,0,0,0,0,0,0,0,0,0,0,0,0,0,0,0,0,0,0,0,0,0,0,0,0,0,0,0,0,0,0,0,0,0,0,0,0,0,0,0,0,0,0,0,0,0,0,0,0,0,0,0,0,0,0,0,0,0,0,0,0,0,0,0,0,0,0,0,0,0,0,0,0,0,0,0,0,0,0,0,0,0,0,0,0,0,0,0],"sum_hessian":[2.64E3,1.065E3,1.575E3,3.46E2,7.19E2,1.5E3,7.5E1,4.5E1,3.01E2,1.5E1,7.04E2,1.402E3,9.8E1,3E0,7.2E1,1.8E1,2.7E1,2.99E2,2E0,6E0,9E0,6.65E2,3.9E1,7.8E1,1.324E3,2.1E1,7.7E1,1E1,6.2E1,8E0,1E1,1.5E1,1.2E1,2.37E2,6.2E1,4E0,2E0,8E0,1E0,6.22E2,4.3E1,4E0,3.5E1,6.3E1,1.5E1,1.304E3,2E1,1.1E1,1E1,2.1E1,5.6E1,1E0,9E0,2E0,6E1,6E0,2E0,5E0,5E0,1.3E1,2E0,1E1,2E0,2.21E2,1.6E1,2.4E1,3.8E1,1E0,7E0,6.2E2,2E0,4E0,3.9E1,3E0,1E0,1.2E1,2.3E1,5.7E1,6E0,7E0,8E0,1.187E3,1.17E2,6E0,1.4E1,6E0,5E0,1.8E1,3E0,1.1E1,4.5E1,4E0,5E0,4.3E1,1.7E1],"tree_param":{"num_deleted":"0","num_feature":"6","num_nodes":"95","size_leaf_vector":"1"}},{"base_weights":[2.2800858E1,5.347082E1,-2.5611372E3,2.7732306E1,3.5632869E3,-4.6812407E3,-2.8096265E2,6.9176796E1,-3.399686E3,5.824711E3,-3.933643E3,-2.3758098E3,-4.1638516E3,1.0681697E3,-1.9449779E3,1.6185816E1,7.560614E3,-7.109664E3,2.284104E3,-4.0402097E3,7.6531763E3,-1.5027399E3,-4.6408167E2,-3.668134E3,-4.1355145E1,-1.3817639E3,3.0783403E3,4.0161125E1,-2.7362615E3,1.2389702E4,2.458373E3,-1.0061184E4,-1.7936763E3,1.1957679E4,-1.8137363E3,-1.4360332E3,-3.8206116E2,1.5992715E4,2.1697466E3,-2.279662E3,-4.3785373E2,-1.2661914E3,1.6386289E3,-5.9968613E3,1.0736323E3,3.267184E3,4.0649945E2,5.1839986E0,9.6781024E2,-1.1173815E3,7.927304E2,9.141807E3,1.896073E3,1.4713652E3,-1.4652676E3,-3.7082385E3,-1.3108711E3,1.3483618E3,-1.000221E3,1.4850239E3,4.947072E3,-2.061158E3,1.3851477E3,7.67467E3,3.216879E2,-3.3362708E3,1.5663572E3,-2.8193945E2,1.101254E3,-2.4915107E3,-7.3773755E2,-7.345884E2,9.480006E2],"categories":[],"categories_nodes":[],"categories_segments":[],"categories_sizes":[],"default_left":[0,0,0,0,0,0,0,0,0,0,0,0,0,0,0,0,0,0,0,0,0,0,0,0,0,0,0,0,0,0,0,0,0,0,0,0,0,0,0,0,0,0,0,0,0,0,0,0,0,0,0,0,0,0,0,0,0,0,0,0,0,0,0,0,0,0,0,0,0,0,0,0,0],"id":19,"left_children":[1,3,5,7,9,11,13,15,17,19,21,23,-1,25,-1,27,29,31,33,35,37,-1,-1,39,41,43,45,47,49,51,53,55,57,59,61,-1,-1,63,65,-1,-1,-1,67,69,-1,-1,71,-1,-1,-1,-1,-1,-1,-1,-1,-1,-1,-1,-1,-1,-1,-1,-1,-1,-1,-1,-1,-1,-1,-1,-1,-1,-1],"loss_changes":[2.0943434E8,2.3577229E8,1.4854514E8,3.6856464E8,3.4503334E8,3.0632032E8,1.4080872E8,1.0173339E9,6.6992806E8,3.0148544E8,5.085552E6,4.208453E7,0E0,7.320053E7,0E0,1.6812238E8,4.1304646E8,2.8006816E8,5.37018E8,1.00384E5,5.597804E8,0E0,0E0,6.7043E7,4.9042828E7,1.8171498E8,1.6255818E8,1.8400757E8,1.26794E8,7.951908E8,2.0356792E8,1.0305062E8,9.247573E7,4.5421504E7,3.5691917E8,0E0,0E0,6.8796646E8,4.2306538E8,0E0,0E0,0E0,2.9649476E7,1.2239728E7,0E0,0E0,6.2768868E7,0E0,0E0,0E0,0E0,0E0,0E0,0E0,0E0,0E0,0E0,0E0,0E0,0E0,0E0,0E0,0E0,0E0,0E0,0E0,0E0,0E0,0E0,0E0,0E0,0E0,0E0],"parents":[2147483647,0,0,1,1,2,2,3,3,4,4,5,5,6,6,7,7,8,8,9,9,10,10,11,11,13,13,15,15,16,16,17,17,18,18,19,19,20,20,23,23,24,24,25,25,26,26,27,27,28,28,29,29,30,30,31,31,32,32,33,33,34,34,37,37,38,38,42,42,43,43,46,46],"right_children":[2,4,6,8,10,12,14,16,18,20,22,24,-1,26,-1,28,30,32,34,36,38,-1,-1,40,42,44,46,48,50,52,54,56,58,60,62,-1,-1,64,66,-1,-1,-1,68,70,-1,-1,72,-1,-1,-1,-1,-1,-1,-1,-1,-1,-1,-1,-1,-1,-1,-1,-1,-1,-1,-1,-1,-1,-1,-1,-1,-1,-1],"split_conditions":[5.4E1,6.1E1,5.9E1,4.4E1,7.4E1,5.7E1,8.1E1,3.9E1,4E1,2.021E3,3E0,5.5E1,-4.1638516E3,1E0,-1.9449779E3,3E1,2E0,5.4E1,5.2E1,2E0,2E0,-1.5027399E3,-4.6408167E2,2.022E3,1E0,6.2E1,2.021E3,2.5E1,4.7E1,2.1E1,3.7E1,3E0,1E0,1E0,5.5E1,-1.4360332E3,-3.8206116E2,2.022E3,2.022E3,-2.279662E3,-4.3785373E2,-1.2661914E3,1E0,3E0,1.0736323E3,3.267184E3,7.2E1,5.1839986E0,9.6781024E2,-1.1173815E3,7.927304E2,9.141807E3,1.896073E3,1.4713652E3,-1.4652676E3,-3.7082385E3,-1.3108711E3,1.3483618E3,-1.000221E3,1.4850239E3,4.947072E3,-2.061158E3,1.3851477E3,7.67467E3,3.216879E2,-3.3362708E3,1.5663572E3,-2.8193945E2,1.101254E3,-2.4915107E3,-7.3773755E2,-7.345884E2,9.480006E2],"split_indices":[5,4,5,4,4,5,4,4,5,3,1,5,0,2,0,5,2,4,4,0,2,0,0,3,0,5,3,5,5,5,5,1,0,2,4,0,0,3,3,0,0,0,2,1,0,0,4,0,0,0,0,0,0,0,0,0,0,0,0,0,0,0,0,0,0,0,0,0,0,0,0,0,0],"split_type":[0,0,0,0,0,0,0,0,0,0,0,0,0,0,0,0,0,0,0,0,0,0,0,0,0,0,0,0,0,0,0,0,0,0,0,0,0,0,0,0,0,0,0,0,0,0,0,0,0,0,0,0,0,0,0,0,0,0,0,0,0,0,0,0,0,0,0,0,0,0,0,0,0],"sum_hessian":[2.64E3,2.61E3,3E1,2.592E3,1.8E1,1.5E1,1.5E1,2.562E3,3E1,1.4E1,4E0,1.3E1,2E0,1.3E1,2E0,2.545E3,1.7E1,1.8E1,1.2E1,2E0,1.2E1,2E0,2E0,8E0,5E0,6E0,7E0,2.524E3,2.1E1,8E0,9E0,1.1E1,7E0,3E0,9E0,1E0,1E0,4E0,8E0,2E0,6E0,1E0,4E0,3E0,3E0,1E0,6E0,2.507E3,1.7E1,1.8E1,3E0,1E0,7E0,7E0,2E0,7E0,4E0,1E0,6E0,2E0,1E0,5E0,4E0,2E0,2E0,1E0,7E0,2E0,2E0,1E0,2E0,3E0,3E0],"tree_param":{"num_deleted":"0","num_feature":"6","num_nodes":"73","size_leaf_vector":"1"}},{"base_weights":[1.8710527E1,4.3255238E1,-2.0491912E3,-4.42197E1,7.19798E2,-3.7348838E3,-2.3542407E2,-2.4827766E1,-1.1232006E4,-3.3457393E3,9.7674786E2,-1.8890947E3,-3.3310815E3,8.423599E2,-5.186608E3,6.225891E1,-1.6146785E3,-3.9139607E3,-8.6826276E2,1.2377754E3,-4.0279495E3,1.0433849E3,-2.6622375E3,-2.869639E3,-1.0342936E2,-1.2751808E3,2.589913E3,-4.065182E2,-1.9274556E3,-9.462062E0,2.4849841E3,-2.5646587E3,8.448411E1,-4.650489E3,4.2739584E2,2.9598687E3,7.1301465E2,-1.8237299E3,-3.252623E2,-1.0762627E3,1.3109016E3,-5.005116E3,8.32065E2,2.777106E3,3.1503793E2,5.0906808E2,-2.9380527E1,5.384628E2,6.7907534E3,-5.7822815E2,-2.935198E3,-8.29185E2,6.4883484E2,-1.6187374E3,3.8795708E1,6.353379E2,-4.430098E2,-1.4471098E2,2.687572E3,-4.4519882E2,3.243136E2,9.202492E2,-2.6479843E2,-2.117784E3,-5.901907E2,-5.6930566E2,7.347006E2],"categories":[],"categories_nodes":[],"categories_segments":[],"categories_sizes":[],"default_left":[0,0,0,0,0,0,0,0,0,0,0,0,0,0,0,0,0,0,0,0,0,0,0,0,0,0,0,0,0,0,0,0,0,0,0,0,0,0,0,0,0,0,0,0,0,0,0,0,0,0,0,0,0,0,0,0,0,0,0,0,0,0,0,0,0,0,0],"id":20,"left_children":[1,3,5,7,9,11,13,15,17,19,21,23,-1,25,27,29,31,-1,-1,-1,33,35,-1,37,39,41,43,-1,-1,45,47,49,51,53,55,57,59,-1,-1,-1,61,63,-1,-1,65,-1,-1,-1,-1,-1,-1,-1,-1,-1,-1,-1,-1,-1,-1,-1,-1,-1,-1,-1,-1,-1,-1],"loss_changes":[1.3413537E8,1.5455221E8,9.390177E7,5.0153296E8,3.156151E8,1.9664189E8,8.97499E7,3.1993114E8,2.2757344E7,1.0836933E8,1.9437312E8,2.421612E7,0E0,5.5109816E7,5.527096E6,3.8073213E8,1.9391718E8,0E0,0E0,0E0,4.9139264E7,1.7580445E8,0E0,4.498144E7,3.426905E7,1.1959246E8,1.1841835E8,0E0,0E0,3.2157373E8,8.354665E8,3.3537187E8,2.6645328E8,5.4133824E7,1.2783373E7,8.509293E8,1.9646901E8,0E0,0E0,0E0,2.1973582E7,1.1072928E7,0E0,0E0,3.770054E7,0E0,0E0,0E0,0E0,0E0,0E0,0E0,0E0,0E0,0E0,0E0,0E0,0E0,0E0,0E0,0E0,0E0,0E0,0E0,0E0,0E0,0E0],"parents":[2147483647,0,0,1,1,2,2,3,3,4,4,5,5,6,6,7,7,8,8,9,9,10,10,11,11,13,13,14,14,15,15,16,16,20,20,21,21,23,23,24,24,25,25,26,26,29,29,30,30,31,31,32,32,33,33,34,34,35,35,36,36,40,40,41,41,44,44],"right_children":[2,4,6,8,10,12,14,16,18,20,22,24,-1,26,28,30,32,-1,-1,-1,34,36,-1,38,40,42,44,-1,-1,46,48,50,52,54,56,58,60,-1,-1,-1,62,64,-1,-1,66,-1,-1,-1,-1,-1,-1,-1,-1,-1,-1,-1,-1,-1,-1,-1,-1,-1,-1,-1,-1,-1,-1],"split_conditions":[5.4E1,9E0,5.9E1,8E0,2.021E3,5.7E1,8.1E1,3E0,3E0,1E1,3E0,5.5E1,-3.3310815E3,1E0,1E0,2E0,8E0,-3.9139607E3,-8.6826276E2,1.2377754E3,5.1E1,1E0,-2.6622375E3,2.022E3,1E0,6.2E1,2.021E3,-4.065182E2,-1.9274556E3,2.022E3,2E0,6E0,2E0,2E0,3E0,3E0,2.022E3,-1.8237299E3,-3.252623E2,-1.0762627E3,2.022E3,3E0,8.32065E2,2.777106E3,7.2E1,5.0906808E2,-2.9380527E1,5.384628E2,6.7907534E3,-5.7822815E2,-2.935198E3,-8.29185E2,6.4883484E2,-1.6187374E3,3.8795708E1,6.353379E2,-4.430098E2,-1.4471098E2,2.687572E3,-4.4519882E2,3.243136E2,9.202492E2,-2.6479843E2,-2.117784E3,-5.901907E2,-5.6930566E2,7.347006E2],"split_indices":[5,4,5,4,3,5,4,5,1,4,0,5,0,2,1,4,5,0,0,0,5,2,0,3,0,5,3,0,0,3,0,4,2,0,1,1,3,0,0,0,3,1,0,0,4,0,0,0,0,0,0,0,0,0,0,0,0,0,0,0,0,0,0,0,0,0,0],"split_type":[0,0,0,0,0,0,0,0,0,0,0,0,0,0,0,0,0,0,0,0,0,0,0,0,0,0,0,0,0,0,0,0,0,0,0,0,0,0,0,0,0,0,0,0,0,0,0,0,0,0,0,0,0,0,0,0,0,0,0,0,0,0,0,0,0,0,0],"sum_hessian":[2.64E3,2.61E3,3E1,2.312E3,2.98E2,1.5E1,1.5E1,2.309E3,3E0,1.7E1,2.81E2,1.3E1,2E0,1.3E1,2E0,2.19E3,1.19E2,2E0,1E0,1E0,1.6E1,2.8E2,1E0,8E0,5E0,6E0,7E0,1E0,1E0,2.128E3,6.2E1,7.6E1,4.3E1,1.4E1,2E0,4E1,2.4E2,2E0,6E0,1E0,4E0,3E0,3E0,1E0,6E0,1.04E2,2.024E3,6.1E1,1E0,7.1E1,5E0,1.8E1,2.5E1,1.2E1,2E0,1E0,1E0,2.6E1,1.4E1,3.4E1,2.06E2,2E0,2E0,1E0,2E0,3E0,3E0],"tree_param":{"num_deleted":"0","num_feature":"6","num_nodes":"67","size_leaf_vector":"1"}},{"base_weights":[9.979666E0,4.1588245E1,-1.1866448E3,-1.5865999E1,1.5917762E3,-5.016761E3,-2.7632053E2,3.1678415E1,-3.9044702E3,7.3364795E2,1.63764795E4,-2.6874448E2,-7.9506787E3,9.969677E3,-1.0443898E3,-9.860839E-2,4.8737085E3,-1.1872805E4,-2.2219263E3,1.2716119E4,1.1671736E1,8.154546E3,1.123151E2,1.4536447E3,-4.037228E3,-4.3268477E3,-3.7644343E3,4.0565378E3,4.1563643E3,-5.803242E3,-1.940591E2,-1.3959749E1,2.5876775E3,-3.5296846E3,9.289893E3,-7.745927E2,-4.0650054E3,-6.831322E3,-1.5531716E3,-2.6016328E3,7.1385493E3,-2.5480503E3,3.4954136E3,-2.7690505E3,2.8195923E3,-8.634416E3,1.4631504E3,7.998352E2,-6.258664E3,2.9632712E3,-1.1378291E3,-3.3767415E3,-2.109754E3,3.9263884E3,-1.095241E3,1.9627514E0,-1.0644412E3,2.337079E3,-8.9537305E2,6.278782E3,-2.1936113E3,-3.2220645E2,-2.7518884E3,1.7289966E2,-1.1192109E3,-2.1899426E3,1.0192078E3,-2.2171228E3,7.662102E1,4.900451E3,-5.0108364E1,-7.423462E2,-3.143141E3,-2.8221062E3,-3.072258E2,7.311875E1,-1.00422833E3,-2.0303373E3,-1.9919452E2],"categories":[],"categories_nodes":[],"categories_segments":[],"categories_sizes":[],"default_left":[0,0,0,0,0,0,0,0,0,0,0,0,0,0,0,0,0,0,0,0,0,0,0,0,0,0,0,0,0,0,0,0,0,0,0,0,0,0,0,0,0,0,0,0,0,0,0,0,0,0,0,0,0,0,0,0,0,0,0,0,0,0,0,0,0,0,0,0,0,0,0,0,0,0,0,0,0,0,0],"id":21,"left_children":[1,3,5,7,9,11,13,15,17,19,21,23,25,27,29,31,33,35,37,39,41,-1,43,-1,45,47,-1,49,-1,51,53,55,57,59,-1,-1,-1,61,63,65,-1,67,69,-1,-1,71,-1,-1,73,-1,-1,-1,75,-1,77,-1,-1,-1,-1,-1,-1,-1,-1,-1,-1,-1,-1,-1,-1,-1,-1,-1,-1,-1,-1,-1,-1,-1,-1],"loss_changes":[9.994148E7,2.2927827E8,2.3570584E8,4.5918422E8,1.1552054E9,1.7895706E8,4.511118E8,3.7758592E8,3.7583168E8,7.6114477E8,8.756462E8,1.3519958E8,7.898883E7,3.56856E7,2.1334354E8,8.75219E7,3.6175631E9,4.292768E7,6.95362E7,9.104367E8,7.5796896E8,0E0,3.4702304E8,0E0,2.0603613E8,9.774107E7,0E0,1.745364E8,0E0,1.373648E8,5.6493216E8,1.7588024E8,4.0012234E8,1.3556969E9,0E0,0E0,0E0,3.0592608E7,1.134396E8,1.0935303E8,0E0,6.6707866E8,1.6955793E9,0E0,0E0,8.127552E6,0E0,0E0,7.2768E7,0E0,0E0,0E0,1.8292932E7,0E0,1.0314525E8,0E0,0E0,0E0,0E0,0E0,0E0,0E0,0E0,0E0,0E0,0E0,0E0,0E0,0E0,0E0,0E0,0E0,0E0,0E0,0E0,0E0,0E0,0E0,0E0],"parents":[2147483647,0,0,1,1,2,2,3,3,4,4,5,5,6,6,7,7,8,8,9,9,10,10,11,11,12,12,13,13,14,14,15,15,16,16,17,17,18,18,19,19,20,20,22,22,24,24,25,25,27,27,29,29,30,30,31,31,32,32,33,33,37,37,38,38,39,39,41,41,42,42,45,45,48,48,52,52,54,54],"right_children":[2,4,6,8,10,12,14,16,18,20,22,24,26,28,30,32,34,36,38,40,42,-1,44,-1,46,48,-1,50,-1,52,54,56,58,60,-1,-1,-1,62,64,66,-1,68,70,-1,-1,72,-1,-1,74,-1,-1,-1,76,-1,78,-1,-1,-1,-1,-1,-1,-1,-1,-1,-1,-1,-1,-1,-1,-1,-1,-1,-1,-1,-1,-1,-1,-1,-1],"split_conditions":[3.7E1,1.5E1,4E1,1.2E1,4E1,2.022E3,4.4E1,1.1E1,1.2E1,1.6E1,2E0,4.3E1,4.5E1,1E0,4.7E1,6.1E1,2.023E3,1E0,1E0,1E0,2E0,8.154546E3,2E0,1.4536447E3,3E0,2E0,-3.7644343E3,1E0,4.1563643E3,1E0,4.9E1,3.1E1,7E1,1E0,9.289893E3,-7.745927E2,-4.0650054E3,3E0,1.3E1,2.023E3,7.1385493E3,2E1,2.023E3,-2.7690505E3,2.8195923E3,1E0,1.4631504E3,7.998352E2,4.3E1,2.9632712E3,-1.1378291E3,-3.3767415E3,3E0,3.9263884E3,5.1E1,1.9627514E0,-1.0644412E3,2.337079E3,-8.9537305E2,6.278782E3,-2.1936113E3,-3.2220645E2,-2.7518884E3,1.7289966E2,-1.1192109E3,-2.1899426E3,1.0192078E3,-2.2171228E3,7.662102E1,4.900451E3,-5.0108364E1,-7.423462E2,-3.143141E3,-2.8221062E3,-3.072258E2,7.311875E1,-1.00422833E3,-2.0303373E3,-1.9919452E2],"split_indices":[5,5,5,5,4,3,5,5,4,5,2,4,4,2,5,4,3,1,2,2,2,0,1,0,1,2,0,1,0,1,5,4,4,2,0,0,0,1,4,3,0,5,3,0,0,1,0,0,4,0,0,0,1,0,5,0,0,0,0,0,0,0,0,0,0,0,0,0,0,0,0,0,0,0,0,0,0,0,0],"split_type":[0,0,0,0,0,0,0,0,0,0,0,0,0,0,0,0,0,0,0,0,0,0,0,0,0,0,0,0,0,0,0,0,0,0,0,0,0,0,0,0,0,0,0,0,0,0,0,0,0,0,0,0,0,0,0,0,0,0,0,0,0,0,0,0,0,0,0,0,0,0,0,0,0,0,0,0,0,0,0],"sum_hessian":[2.64E3,2.573E3,6.7E1,2.482E3,9.1E1,1.2E1,5.5E1,2.453E3,2.9E1,8.7E1,4E0,5E0,7E0,3E0,5.2E1,2.438E3,1.5E1,4E0,2.5E1,4E0,8.3E1,2E0,2E0,2E0,3E0,5E0,2E0,2E0,1E0,7E0,4.5E1,2.426E3,1.2E1,1.2E1,3E0,1E0,3E0,2E0,2.3E1,2E0,2E0,4.8E1,3.5E1,1E0,1E0,2E0,1E0,1E0,4E0,1E0,1E0,2E0,5E0,2E0,4.3E1,2.413E3,1.3E1,6E0,6E0,1E0,1.1E1,1E0,1E0,1.2E1,1.1E1,1E0,1E0,1.7E1,3.1E1,7E0,2.8E1,1E0,1E0,2E0,2E0,2E0,3E0,2E0,4.1E1],"tree_param":{"num_deleted":"0","num_feature":"6","num_nodes":"79","size_leaf_vector":"1"}},{"base_weights":[1.3829743E1,-5.6674066E2,7.209865E1,-5.0018222E2,-1.315585E3,1.6703839E3,-1.5673756E1,-5.470639E2,1.5916173E3,1.462327E3,4.120416E3,-1.5336255E3,3.743754E1,3.2113678E0,-1.0836091E3,8.9938226E2,3.3603027E3,-5.418621E3,-3.425663E2,-1.2381069E1,1.1419677E3,-5.378113E2,1.538914E3,-5.3350234E3,-5.6183136E2,3.038244E3,5.9850146E2,1.100283E3,1.6625194E3,1.5907213E3,-8.236885E3,-4.4892026E3,5.76545E2,3.6261818E1,-4.0648113E3,9.883536E3,-8.89958E2,-7.1114795E2,3.3340417E2,2.7196794E3,-9.1621265E2,-3.4738796E3,4.585767E0,1.4642654E2,-8.5839197E2,-3.8072407E3,3.0622595E2,1.0125713E3,-1.7998956E3,-3.0019922E3,2.9673188E3,-5.5867295E3,-4.655784E2,-1.9140275E3,8.039594E2,4.2751224E2,-1.7649794E3,2.680444E2,-1.9788317E1,-2.6870972E3,-4.9940594E2,1.496586E3,4.2672485E3,-7.513666E2,1.24382095E2],"categories":[],"categories_nodes":[],"categories_segments":[],"categories_sizes":[],"default_left":[0,0,0,0,0,0,0,0,0,0,0,0,0,0,0,0,0,0,0,0,0,0,0,0,0,0,0,0,0,0,0,0,0,0,0,0,0,0,0,0,0,0,0,0,0,0,0,0,0,0,0,0,0,0,0,0,0,0,0,0,0,0,0,0,0],"id":22,"left_children":[1,3,5,7,-1,9,11,13,-1,15,-1,17,19,21,23,25,27,29,31,33,35,37,39,41,43,-1,45,47,-1,49,51,53,55,57,59,61,63,-1,-1,-1,-1,-1,-1,-1,-1,-1,-1,-1,-1,-1,-1,-1,-1,-1,-1,-1,-1,-1,-1,-1,-1,-1,-1,-1,-1],"loss_changes":[8.9383784E7,5.9058216E7,3.368513E8,6.768008E7,0E0,2.9367382E8,1.8363E8,6.9977144E7,0E0,1.294663E8,0E0,3.5444275E8,1.21126696E8,9.886794E7,2.6319784E8,2.632647E8,1.3194451E8,3.6867773E8,2.3126144E8,4.1548326E8,1.6962066E9,2.6860413E8,1.0993482E9,4.3451235E8,2.6213709E8,0E0,5.460401E8,2.625307E8,0E0,6.7654874E8,8.7364934E8,1.6621277E8,2.8243997E8,1.8258686E8,2.7863546E8,3.1148698E8,1.6533346E8,0E0,0E0,0E0,0E0,0E0,0E0,0E0,0E0,0E0,0E0,0E0,0E0,0E0,0E0,0E0,0E0,0E0,0E0,0E0,0E0,0E0,0E0,0E0,0E0,0E0,0E0,0E0,0E0],"parents":[2147483647,0,0,1,1,2,2,3,3,5,5,6,6,7,7,9,9,11,11,12,12,13,13,14,14,15,15,16,16,17,17,18,18,19,19,20,20,21,21,22,22,23,23,24,24,26,26,27,27,29,29,30,30,31,31,32,32,33,33,34,34,35,35,36,36],"right_children":[2,4,6,8,-1,10,12,14,-1,16,-1,18,20,22,24,26,28,30,32,34,36,38,40,42,44,-1,46,48,-1,50,52,54,56,58,60,62,64,-1,-1,-1,-1,-1,-1,-1,-1,-1,-1,-1,-1,-1,-1,-1,-1,-1,-1,-1,-1,-1,-1,-1,-1,-1,-1,-1,-1],"split_conditions":[1E0,3E0,2E0,2E0,-1.315585E3,2E0,1E0,2E0,1.5916173E3,1E0,4.120416E3,1E0,1.5E1,2.023E3,2.022E3,2.021E3,2.023E3,2.022E3,2.021E3,1.3E1,2.1E1,2E0,3E0,3E0,1E0,3.038244E3,2.022E3,2E0,1.6625194E3,3E0,2.023E3,6.2E1,2.9E1,2E0,2E0,2E0,3.7E1,-7.1114795E2,3.3340417E2,2.7196794E3,-9.1621265E2,-3.4738796E3,4.585767E0,1.4642654E2,-8.5839197E2,-3.8072407E3,3.0622595E2,1.0125713E3,-1.7998956E3,-3.0019922E3,2.9673188E3,-5.5867295E3,-4.655784E2,-1.9140275E3,8.039594E2,4.2751224E2,-1.7649794E3,2.680444E2,-1.9788317E1,-2.6870972E3,-4.9940594E2,1.496586E3,4.2672485E3,-7.513666E2,1.24382095E2],"split_indices":[1,0,1,0,0,0,2,2,0,4,0,4,5,3,3,3,3,3,3,4,5,4,4,4,4,0,3,2,0,1,3,5,5,2,2,2,4,0,0,0,0,0,0,0,0,0,0,0,0,0,0,0,0,0,0,0,0,0,0,0,0,0,0,0,0],"split_type":[0,0,0,0,0,0,0,0,0,0,0,0,0,0,0,0,0,0,0,0,0,0,0,0,0,0,0,0,0,0,0,0,0,0,0,0,0,0,0,0,0,0,0,0,0,0,0,0,0,0,0,0,0,0,0,0,0,0,0,0,0,0,0,0,0],"sum_hessian":[2.64E3,2.4E2,2.4E3,2.37E2,3E0,1.24E2,2.276E3,2.36E2,1E0,1.23E2,1E0,7.6E1,2.2E3,1.17E2,1.19E2,9.6E1,2.7E1,1.7E1,5.9E1,2.106E3,9.4E1,8.7E1,3E1,1.2E1,1.07E2,2E0,9.4E1,1.4E1,1.3E1,5E0,1.2E1,1E1,4.9E1,2.082E3,2.4E1,1.7E1,7.7E1,4.1E1,4.6E1,1.1E1,1.9E1,5E0,7E0,7.4E1,3.3E1,2E0,9.2E1,1.1E1,3E0,2E0,3E0,4E0,8E0,8E0,2E0,4.4E1,5E0,2.21E2,1.861E3,7E0,1.7E1,9E0,8E0,3.4E1,4.3E1],"tree_param":{"num_deleted":"0","num_feature":"6","num_nodes":"65","size_leaf_vector":"1"}},{"base_weights":[8.055089E0,-1.9901959E2,1.3395865E2,-1.808462E2,-4.6744385E3,1.5832117E2,-4.8649214E3,1.5121175E2,-3.7150696E2,-3.656713E2,-1.6259946E3,8.841899E1,2.1660835E3,-1.0433074E4,3.3115E3,-3.9854593E2,1.2055369E3,-5.899111E2,4.6993417E2,1.20895226E2,-5.0289346E3,1.5138939E4,8.517626E2,9.083848E1,-3.9578223E3,-2.525275E3,5.7748125E3,-5.481696E2,1.370665E3,1.0269602E3,3.5023547E3,-3.985812E2,-5.1905986E3,1.804274E3,-1.4066859E3,-2.705971E3,1.6088889E2,2.5772205E3,-7.4967573E3,2.6962645E4,-5.193235E2,2.9203896E3,-1.2496248E3,-1.2539254E2,-1.0748997E3,1.9599833E3,-1.3247505E2,8.8458453E2,1.8196176E2,-1.0144682E2,-1.3403445E3,-1.6572631E3,1.7220264E2,2.877022E2,2.4252534E3,-1.4643536E3,3.7294278E2,-1.6871239E3,3.548986E3,5.0135278E2,4.3958607E0,-3.1916887E3,-2.7277853E2,-1.9287991E3,1.4061989E4,-4.890507E2,3.1092903E3,